\data\
ngram 1=16899
ngram 2=4676
ngram 3=2175
ngram 4=1028
ngram 5=527

\1-grams:
-4.656806	<unk>	0
0	<s>	0
0	</s>	0
-1.9163743	У	-0.3125192
-4.359158	Франції	-0.03588579
-4.540657	вручено	0
-3.731632	підозру	-0.040055603
-4.540657	бенефіціару	0
-3.6284673	банку	-0.041253995
-4.540657	"Фінанси	-0.052127473
-1.9199529	та	-0.03522439
-4.540657	Кредит"	0
-3.7941475	Жеваго	-0.038577624
-4.213555	Японія	-0.11162927
-2.14725	і	-0.029526338
-3.1656277	5	-0.06168176
-3.6284673	країн	-0.052237842
-3.5848224	Європи	-0.034760844
-4.0653625	готові	0
-4.359158	долучитися	-0.18044904
-2.2143335	до	-0.099064946
-4.0653625	забезпечення	0
-4.540657	судноплавства	0
-1.8549944	в	-0.16904649
-4.540657	Ормузькій	-0.052127473
-4.540657	протоці	0
-4.540657	"Дубай	0
-4.540657	збудований	0
-2.3935688	не	-0.08231188
-2.2090578	для	-0.09631258
-4.540657	війни".	0
-2.9189382	Як	-0.024801916
-3.9550755	війна	-0.06348409
-3.0545862	проти	-0.11366339
-3.120597	Ірану	-0.14035939
-4.540657	б'є	0
-2.6987379	по	-0.11813128
-4.540657	бізнес-оазі	0
-4.0653625	ОАЕ	-0.01245711
-4.0653625	НПЗ	-0.14080973
-4.540657	Кувейте	0
-3.6769936	и	-0.005492408
-4.540657	Саудовской	0
-4.540657	Аравии	0
-4.359158	атакованы	0
-4.540657	вслед	0
-2.1352875	за	-0.11240693
-4.540657	Катаром	0
-3.9550755	Європейська	-0.49068117
-4.359158	рада	0
-3.8671997	сьогодні	-0.052237842
-4.540657	обговорить	0
-3.3381045	війни	-0.09925233
-3.06701	Україні	-0.070953585
-4.359158	Ірані:	0
-4.0653625	очікується	0
-4.359158	виступ	0
-3.545166	Зеленського	-0.063484125
-4.359158	Єгипет	-0.18044904
-4.359158	вводить	-0.025282111
-4.359158	жорстку	0
-4.540657	економію	0
-4.0653625	електроенергії	-0.053243537
-1.660591	на	-0.18691334
-4.540657	тлі	0
-4.540657	енергокризи	0
-2.4921803	через	-0.09482566
-3.731632	війну	-0.13517222
-4.0653625	Ірані	-0.01672411
-4.540657	Всупереч	0
-4.540657	вимогам	0
-4.359158	Трампа:	0
-4.359158	партії	0
-3.4441743	російської	-0.08463379
-3.6769936	нафти	-0.018860605
-3.731632	газу	-0.07254791
-4.540657	прямують	0
-4.359158	Кубу	0
-2.868243	Росія	-0.27216288
-4.359158	зможе	-0.01669016
-4.359158	скористатися	0
-4.359158	зростанням	-0.18044904
-3.7941475	цін	-0.48554644
-3.9550755	нафту	0
-4.540657	погодні	0
-3.8671997	умови	-0.15370676
-3.181739	атаки	-0.23981585
-3.3381045	дронів	-0.06811638
-2.4629912	-	-0.18167636
-4.0653625	Reuters	-0.03588579
-4.359158	Місія	-0.18044904
-3.4441743	МВФ	-0.05953186
-3.8671997	розпочала	0
-3.5088294	зустрічі	-0.2530034
-1.9110614	з	-0.07375799
-4.213555	українською	0
-4.540657	владою	0
-1.7086364	у	-0.15544143
-4.213555	Києві	-0.037080072
-4.540657	Швидкісна	0
-4.540657	залізниця	0
-2.4822311	від	-0.04484793
-3.731632	Києва	0
-4.540657	кордону:	0
-2.8228517	Україна	-0.24321203
-4.540657	Корея	0
-4.540657	розпочинають	0
-4.213555	розробку	0
-3.9550755	проєкту	0
-3.042508	Іран	-0.18454336
-4.213555	використовує	0
-3.1500928	нові	-0.05766313
-4.540657	види	0
-3.5848224	зброї	-0.087761074
-3.8671997	війні	-0.12869251
-2.5895443	США	-0.13391778
-4.540657	Ізраїлем	0
-4.359158	НАТО	0
-4.540657	розгорне	0
-2.9372427	ще	-0.112494506
-4.359158	одну	0
-3.7941475	систему	-0.04437948
-4.0653625	Patriot	0
-4.540657	Туреччині	0
-2.375248	—	-0.08786928
-4.359158	Енергетики	0
-4.0653625	запровадили	-0.08091911
-3.4441743	графіки	-0.2984378
-3.731632	відключень	-0.24684432
-4.359158	Києві:	0
-2.385622	що	-0.1728558
-3.9550755	потрібно	0
-4.540657	знати	0
-4.540657	УПЛ-2025	0
-2.3132567	–	-0.09254121
-3.198471	2026	-0.15035331
-4.540657	футболу:	0
-4.540657	турнірна	0
-4.540657	таблиця,	0
-3.9550755	результати	0
-4.0653625	матчів	0
-4.359158	розклад	0
-3.6284673	атакував	-0.019235715
-4.540657	Тель-Авів	0
-3.9550755	ракетами	-0.06348409
-4.540657	касетними	0
-4.540657	боєголовками,	0
-2.6933734	є	-0.31000483
-4.540657	загиблі	0
-4.359158	Марокко	0
-4.213555	визнали	0
-4.540657	переможцем	0
-4.0653625	Кубка	-0.0099369325
-4.540657	Африки,	0
-4.540657	Сенегалу	0
-4.540657	зарахували	0
-4.359158	технічну	0
-4.213555	поразку	0
-4.540657	Температура	0
-4.540657	знизиться,	0
-4.540657	подекуди	0
-4.540657	дощитиме:	0
-3.7941475	прогноз	0
-4.359158	погоди	-0.18044904
-3.5088294	18	-0.3630451
-3.415131	березня	-0.045233544
-3.731632	Нові	0
-4.540657	категорії	0
-3.6769936	бізнесу	0
-3.198471	отримали	-0.07161328
-4.540657	статус	0
-4.359158	критичних	0
-3.9550755	право	-0.28142646
-4.540657	бронювання:	0
-3.7941475	перелік	0
-4.540657	Єврокомісії	0
-4.213555	очікують	0
-4.359158	прогресу	-0.18044904
-3.042508	щодо	-0.078410454
-4.0653625	розблокування	-0.08091911
-3.7941475	кредиту	-0.23887756
-2.7442203	України	-0.11512253
-3.5848224	підтримки	-0.04437948
-4.0653625	Британії	0
-4.213555	запустила	0
-3.5088294	центр	0
-4.540657	«A1»	0
-4.359158	швидкого	0
-4.213555	впровадження	0
-3.8671997	ШІ	0
-4.540657	війську	0
-4.540657	Збірна	0
-3.7941475	втратила	-0.06348409
-4.359158	чергового	0
-4.540657	важливого	0
-4.213555	гравця	0
-4.540657	матч	0
-4.359158	Швеції	0
-4.540657	відборі	0
-4.359158	ЧС-2026	0
-4.540657	П'ять	0
-4.540657	міфів	0
-2.3989484	про	-0.077332504
-4.540657	лихоманку,	0
-2.6828394	які	-0.030725325
-4.359158	вірить	0
-4.540657	більшість:	0
-4.540657	робити,	0
-3.9550755	якщо	0
-4.540657	піднялась	0
-4.540657	температура	0
-4.540657	Молочні	0
-3.9550755	продукти	-0.052237842
-2.5611115	із	-0.030882085
-4.540657	хворобами	0
-4.213555	серця	0
-4.540657	пов’язані	0
-4.213555	П’ять	0
-4.540657	продуктів,	0
-3.7941475	якими	-0.04437948
-3.5088294	можна	-0.025329994
-4.540657	перекусити	0
-4.540657	увечері	0
-4.540657	гарного	0
-4.540657	сну	0
-3.8671997	Названо	0
-4.540657	вітамін,	0
-4.0653625	дефіцит	0
-3.545166	якого	-0.023331895
-4.213555	провокує	0
-4.540657	депресію	0
-3.415131	Вчені	-0.12251677
-3.120597	знайшли	-0.07252763
-4.540657	звичку,	0
-4.540657	здатна	0
-4.359158	продовжити	0
-4.213555	життя:	0
-3.234003	деталі	-0.03167707
-3.7941475	Шість	0
-4.540657	основних	0
-4.540657	переваг	0
-4.359158	вживання	0
-4.540657	чаю	0
-4.540657	мате	0
-3.1350944	10	-0.16571635
-4.359158	хвилин	0
-4.359158	активності	0
-3.7941475	день	-0.04890795
-3.0545862	можуть	-0.0665076
-4.540657	поліпшити	0
-3.4441743	роботу	-0.039308302
-4.359158	мозку	0
-4.359158	показало	-0.025282111
-3.9550755	дослідження	0
-3.2934282	За	-0.09812362
-4.213555	добу	-0.018258305
-4.540657	біди:	0
-4.213555	лікарі	0
-3.315192	назвали	-0.013635067
-3.5848224	чотири	0
-4.359158	критичні	0
-4.540657	симптоми,	0
-4.0653625	попереджають	-0.39377114
-4.213555	зупинку	0
-4.359158	помилок	0
-3.6284673	при	-0.030583069
-4.540657	використанні	0
-4.540657	назальних	0
-4.540657	спреїв	0
-4.359158	Названі	-0.18044904
-4.540657	продукти,	-0.052127473
-4.213555	викликають	0
-4.540657	набряклість	0
-3.3381045	перед	-0.052866947
-4.540657	сном	0
-4.359158	Люди,	0
-4.540657	фарбують	0
-3.8671997	волосся	0
-4.359158	яскраві	0
-4.540657	кольори,	0
-3.6769936	мають	0
-4.213555	ці	0
-3.8671997	11	0
-4.540657	специфічних	0
-4.540657	рис	0
-4.540657	характеру	0
-3.8671997	Скільки	0
-4.540657	часу	0
-3.9550755	варто	0
-4.359158	приділяти	0
-4.540657	силовим	0
-4.540657	тренуванням	0
-2.611057	після	-0.124311306
-3.731632	50	-0.08091911
-3.9550755	років:	0
-4.540657	рекомендації	0
-4.540657	тренерів	0
-3.545166	Чому	-0.052237842
-4.213555	роками	0
-4.359158	губи	0
-4.359158	стають	0
-4.540657	тоншими:	0
-3.7941475	експерти	-0.04437948
-4.540657	перелічили	0
-3.5848224	всі	-0.027712079
-4.540657	можливі	0
-3.5848224	причини	0
-4.540657	Зміцнює	0
-4.540657	імунітет	0
-4.540657	позбавляє	0
-4.540657	запорів:	0
-2.768882	який	-0.027293686
-4.540657	фрукт	0
-4.213555	допоможе	0
-4.359158	покращити	-0.18044904
-4.359158	самопочуття	0
-4.540657	Контейнери	0
-4.0653625	зберігання	0
-4.359158	їжі	0
-4.540657	зашкодити	0
-4.540657	здоров'ю:	0
-4.213555	дослідники	0
-3.2934282	виявили	0
-4.359158	небезпечний	0
-4.540657	хімічний	0
-4.540657	складник	0
-4.540657	Відмова	0
-4.540657	солодкого	0
-4.540657	здоров’ю:	0
-4.540657	несподіване	0
-3.9550755	відкриття	0
-4.359158	вчених	0
-4.359158	Учені	-0.18044904
-4.359158	можливу	0
-4.359158	спільну	0
-4.0653625	причину	0
-2.9763427	двох	-0.062461518
-4.540657	симптомів	0
-4.540657	шизофренії	0
-4.540657	Німецькі	0
-4.0653625	фахівці	0
-4.359158	організовують	0
-3.731632	навчання	-0.08091911
-3.5848224	українських	-0.027712079
-4.540657	лікарів-радіологів	0
-4.540657	Штучна	0
-4.540657	плацента:	0
-3.1500928	новий	-0.009632196
-4.0653625	шанс	-0.08091911
-4.540657	недоношених	0
-3.1500928	дітей	-0.09549199
-4.359158	продуктів	0
-4.540657	напоїв,	0
-4.359158	поєднувати	0
-4.540657	ліками	0
-3.6284673	Експерти	-0.08908156
-3.4752998	пояснили,	-0.24076055
-2.5198827	як	-0.07451065
-3.9550755	вода	-0.06348409
-4.0653625	допомагає	-0.08091911
-3.9550755	зранку	0
-4.540657	Найкраща	0
-4.359158	домашня	0
-4.540657	омолоджувальна	0
-4.540657	маска	0
-4.540657	зморшок:	0
-4.540657	ефект	0
-4.540657	відчуєте	0
-4.359158	одразу	0
-3.315192	Що	-0.030583069
-4.0653625	робити	0
-4.540657	високому	0
-4.359158	тиску:	0
-3.8671997	поради	0
-4.540657	кардіологів	0
-4.540657	підібрати	0
-4.540657	гель	0
-4.540657	душу	0
-4.359158	типу	0
-4.540657	шкіри:	0
-4.0653625	ось	0
-4.540657	звернути	0
-3.9550755	увагу	-0.11393884
-4.540657	Поради,	0
-4.540657	котрі	0
-4.359158	допоможуть	0
-4.359158	скинути	0
-4.213555	кг	0
-4.0653625	місяць	0
-4.540657	“Тепер	0
-4.540657	їжа	0
-4.540657	смакує	0
-4.540657	по-іншому”:	0
-4.359158	львівські	0
-4.540657	пересадили	0
-4.540657	нирку	0
-4.540657	26-річній	0
-4.540657	пацієнтці	0
-2.4789646	В	-0.3307157
-4.0653625	розпочався	-0.08091911
-4.0653625	сезон	0
-4.359158	кліщів:	0
-3.9550755	медики	0
-4.0653625	ризики	0
-4.540657	зараження	0
-4.540657	хворобою	0
-4.359158	Лайма	0
-4.540657	Хода	0
-4.540657	видає	0
-4.359158	ваші	0
-4.359158	емоції	0
-4.540657	Інфекції	0
-4.0653625	чекають	0
-4.540657	реформ	0
-4.540657	увійшла	0
-4.0653625	списку	0
-4.359158	високою	0
-4.540657	дитячою	0
-4.540657	смертністю	0
-4.540657	звітом	0
-4.213555	ООН	0
-4.540657	калорій	0
-4.359158	спалює	0
-4.359158	наше	0
-4.540657	тіло,	0
-3.5848224	навіть	0
-3.1500928	коли	-0.03150675
-3.7941475	ми	0
-4.359158	нічого	-0.18044904
-4.540657	робимо	0
-4.540657	Атрофічний	0
-4.540657	гастрит:	0
-4.359158	причини,	0
-4.540657	симптоми	0
-3.5848224	лікування	0
-4.359158	виявили,	0
-4.359158	крихітні	0
-4.540657	капсули	0
-3.5848224	зробити	0
-4.540657	променеву	0
-4.540657	терапію	0
-4.540657	безпечнішою	0
-4.540657	Мазь	0
-4.540657	календули:	0
-4.540657	бюджетний	0
-4.540657	засіб	0
-4.540657	догляду	0
-4.540657	віковою	0
-4.540657	шкірою	0
-4.359158	обличчя	0
-4.540657	корисніше	0
-4.540657	мед	0
-3.4441743	чи	-0.034760844
-4.540657	кленовий	0
-4.540657	сироп:	0
-3.5848224	вони	0
-4.540657	впливають	0
-3.8671997	рівень	0
-4.359158	цукру	0
-3.9550755	здоров’я	0
-4.540657	пацієнтка	0
-3.9550755	п’ять	0
-4.359158	місяців	0
-4.540657	залишає	0
-4.359158	лікарню	0
-4.540657	виписки:	0
-4.213555	заклад	0
-4.0653625	подав	-0.08091911
-3.4752998	суду	-0.037080072
-4.540657	Сталевий	0
-4.540657	дотик	0
-4.540657	повертає	0
-4.540657	рух.	0
-3.7941475	українці	0
-4.540657	створюють	0
-4.359158	доступні	0
-4.540657	протези	0
-4.540657	пальців	0
-4.359158	порадили,	0
-4.213555	додати	-0.06348409
-4.540657	каву,	0
-4.0653625	аби	0
-4.359158	швидше	0
-4.540657	прокидатись	0
-3.042508	майже	-0.12200372
-4.359158	чверть	0
-4.540657	збільшила	0
-4.540657	повітряні	0
-3.8671997	українські	0
-4.213555	заклади	0
-4.359158	охорони	0
-4.359158	Лікарі	0
-4.359158	рекомендують	0
-4.213555	їсти	0
-4.359158	огірки	0
-4.359158	щодня:	0
-4.359158	знижують	0
-4.540657	артеріальний	0
-4.540657	тиск,	0
-4.540657	зміцнюють	0
-4.359158	кістки	0
-3.5848224	2	-0.027337382
-4.540657	літри	0
-3.731632	води	-0.10666278
-4.540657	міф:	0
-4.540657	реальну	0
-4.540657	норму	0
-4.540657	кожного	0
-4.540657	звичок,	0
-4.213555	ризик	0
-3.6284673	розвитку	0
-4.540657	деменції	0
-4.540657	Потяг	0
-4.540657	солодкого:	0
-4.540657	втамувати	0
-3.7941475	просять	0
-3.2934282	українців	-0.029076857
-4.359158	відмовитись	-0.18044904
-3.215874	трьох	-0.047364194
-4.540657	методів	0
-3.545166	Чи	-0.14870094
-4.540657	масаж	0
-4.540657	артеріальному	0
-3.8671997	відповідь	0
-4.540657	вразить	0
-4.540657	багатьох	0
-4.540657	Ви	0
-4.540657	користуєтесь	0
-4.359158	цим	0
-4.540657	дерматолог	0
-4.359158	попередила	-0.18044904
-4.540657	шкоду	0
-4.213555	відомого	0
-4.540657	засобу	0
-4.359158	Полтаві	-0.0037950303
-4.359158	воїну	0
-3.215874	провели	-0.09711896
-3.9550755	операцію	0
-3.415131	відновлення	-0.064572714
-4.540657	дихання	0
-4.540657	Правильний	0
-4.540657	режим	0
-4.540657	харчування,	0
-4.0653625	людина	0
-3.731632	хоче	-0.034118067
-4.540657	схуднути	0
-4.540657	«Лікарі	0
-2.7096698	без	-0.14626573
-4.540657	кордонів»	0
-4.213555	відвідали	0
-4.540657	Охтирці	0
-4.540657	Самотність	0
-4.540657	небезпечніша,	0
-3.5848224	ніж	0
-4.540657	здається:	0
-4.213555	відбувається	-0.025282111
-4.213555	тілом	-0.06348409
-3.8671997	Ці	0
-4.359158	харчування	0
-3.545166	чоловіків	-0.03689491
-4.540657	рак	0
-4.540657	кишківника	0
-3.4752998	буде	-0.0074313227
-4.540657	вашим	0
-4.540657	організмом,	0
-4.540657	броколі	0
-4.359158	щодня	0
-4.213555	впливає	-0.11162927
-4.359158	музика	0
-4.540657	здоров'я?	0
-4.359158	Лікарня	0
-4.540657	"Шаріте"	0
-4.540657	Берлінська	0
-4.540657	філармонія	0
-4.0653625	шукають	0
-2.1611137	На	-0.3962723
-4.359158	Черкащині	-0.0022385016
-4.540657	захворюваність	0
-4.540657	туберкульоз	-0.052127473
-4.540657	46%	0
-4.540657	вища	0
-4.540657	середній	0
-4.359158	країні	0
-4.540657	Небезпечний	0
-4.540657	трикутник:	0
-4.540657	куріння,	0
-4.540657	діабет	0
-4.213555	хвороби	0
-4.540657	руйнують	0
-4.359158	організм,	0
-4.0653625	пояснили	-0.08091911
-4.540657	ЦГЗ	0
-4.540657	добавку,	0
-3.0797997	яка	-0.02466293
-3.1500928	може	-0.045115143
-3.8671997	допомогти	-0.08091911
-4.359158	знизити	0
-3.8671997	тиск	-0.21999095
-4.359158	Домашні	0
-4.0653625	засоби	-0.08091911
-4.540657	блиску	0
-4.540657	Канабіс	0
-4.359158	ожиріння	0
-4.540657	печінки.	0
-4.540657	Ізраїльські	0
-3.731632	вчені	-0.038577624
-4.0653625	спосіб	0
-4.0653625	зупинити	0
-4.540657	хворобу	0
-3.8671997	Які	0
-4.359158	звички	0
-4.359158	підвищують	0
-4.359158	раку	0
-4.540657	шкіри	0
-3.7941475	Чоловік	-0.052222107
-4.540657	сексу	0
-4.540657	низького	0
-4.540657	лібідо	0
-4.540657	Ягоди	0
-3.545166	замість	-0.025333999
-4.540657	фастфуду.	0
-4.213555	з’ясували,	0
-4.540657	дієта	0
-4.540657	ефективно	0
-4.540657	гальмує	0
-4.540657	старіння	0
-4.540657	пацієнти	0
-4.540657	обирають	0
-4.359158	МРТ	0
-4.540657	«СДС»	0
-4.540657	«Доступні	0
-4.540657	ліки»	0
-4.540657	розширили:	0
-3.8671997	список	0
-4.540657	додали	0
-4.540657	37	0
-4.540657	препаратів	0
-4.540657	Дієтологи	0
-4.540657	продукт,	0
-4.359158	швидко	0
-4.540657	знижує	0
-4.540657	кортизолу	0
-4.540657	заспокоює	0
-4.540657	Причини	0
-4.540657	інфаркту	0
-4.213555	молодих	0
-3.0545862	людей	-0.07730478
-4.540657	Електронні	0
-4.540657	сигарети	0
-4.540657	провокують	0
-4.540657	аритмію	0
-4.540657	Дитяче	0
-4.359158	шанси	0
-3.731632	дитини	0
-4.540657	кар’єрний	0
-4.359158	ріст	0
-4.540657	житті	0
-4.540657	Корисніші	0
-4.540657	джерки.	0
-4.359158	Дев’ять	0
-4.540657	закусок,	0
-4.540657	добрати	0
-4.540657	білок	0
-4.540657	малюків	0
-4.540657	коліки	0
-3.6769936	їх	0
-4.540657	лікувати	0
-4.359158	Дитяча	0
-4.359158	смертність	0
-4.213555	світі	-0.0027375086
-4.540657	зростає	0
-3.1350944	серед	-0.087054074
-4.540657	найвищим	0
-4.540657	ризиком	0
-4.540657	цифровізують	0
-4.540657	епідеміологічного	0
-4.540657	нагляду	0
-4.540657	Вправи	0
-4.540657	Кегеля	0
-4.540657	чоловіків:	0
-4.540657	прихований	0
-4.359158	ключ	-0.18044904
-4.540657	чоловічого	0
-4.540657	здоров'я	0
-4.540657	довголіття	0
-3.8671997	Рецепт	0
-4.359158	покращення	0
-4.213555	пам’яті	0
-4.540657	обміну	0
-4.359158	речовин:	0
-4.0653625	приготувати	0
-4.540657	суміш	0
-4.540657	хрону	0
-4.540657	імбиру	0
-4.359158	Магнітна	-0.18044904
-4.540657	буря	0
-3.1350944	20	-0.33763385
-3.7941475	березня:	-0.032860298
-4.540657	К-індекс	0
-3.8671997	чекає	0
-4.359158	подбати	-0.18044904
-4.359158	власне	0
-4.540657	Забудьте	0
-4.359158	зайві	0
-4.540657	калорії:	0
-4.213555	прості	0
-4.540657	перекуси,	0
-4.540657	заряджають	0
-4.540657	енергією	0
-4.540657	відкладаються	0
-4.540657	талії	0
-4.213555	Секрети	0
-4.540657	схуднення:	0
-4.540657	дієтологи	0
-4.540657	назвали,	0
-4.359158	заважає	0
-4.540657	кілограми	0
-4.540657	корисні	0
-4.540657	артритом	0
-4.540657	Бутерброди	0
-4.540657	тільки.	0
-4.540657	здатні	0
-4.540657	заразити	0
-4.540657	лістерією	0
-4.359158	жир	0
-4.540657	животі:	0
-4.540657	кардіологиня	0
-2.956353	зі	-0.04821047
-3.7941475	розповіла	-0.4275545
-3.1656277	два	-0.09587277
-4.540657	способи	0
-4.540657	психічні	0
-4.359158	захворювання	0
-4.540657	передаються	0
-4.540657	спадок	0
-4.213555	дні	-0.01245711
-4.540657	турецького	-0.052127473
-4.540657	водосховища	-0.052127473
-4.540657	руїни	-0.052127473
-4.359158	споруд	-0.025282111
-3.9550755	віком	-0.0099369325
-4.540657	2400	0
-4.540657	років.	0
-3.6769936	ФОТО	-0.13368426
-4.540657	Загадка	0
-4.540657	еволюції:	0
-4.359158	знайдений	0
-4.213555	Китаї	0
-4.540657	скам’янілий	0
-4.540657	«монстр»	0
-4.0653625	змінює	0
-4.213555	уявлення	-0.26883242
-4.540657	стародавній	0
-4.540657	океан	0
-4.540657	Blue	0
-4.540657	Origin	0
-4.213555	представила	0
-3.4752998	нову	-0.018860605
-4.213555	космічну	0
-4.359158	місію	-0.025282111
-4.540657	NEO	0
-4.540657	Hunter	0
-4.213555	захисту	0
-3.9550755	Землі	0
-4.540657	астероїдів	0
-4.540657	рідкісну	0
-4.540657	скам'янілість	0
-4.540657	повним	0
-4.540657	потужними	0
-4.540657	щелепами	0
-4.540657	тюлені	0
-4.540657	ризикують	0
-4.540657	життям	0
-3.9550755	заради	0
-4.540657	з'ясували	0
-3.5088294	Не	0
-4.359158	дивіться	0
-4.540657	очі	0
-4.540657	рибам:	0
-3.120597	чому	-0.021623123
-4.540657	цихліди	0
-3.9550755	атакують	-0.008264922
-4.0653625	Астрономи	-0.08091911
-3.3381045	зафіксували	-0.017572328
-4.540657	катастрофічне	0
-4.213555	зіткнення	0
-4.540657	планет	0
-2.956353	тисяч	-0.21719198
-4.540657	світлових	0
-3.1500928	років	-0.13380942
-4.359158	Північній	0
-4.540657	півкулі	0
-4.540657	настає	0
-4.540657	астрономічна	0
-4.540657	весна:	0
-3.8671997	завтра	-0.052237842
-4.0653625	День	-0.01245711
-3.9550755	весняного	0
-4.359158	рівнодення	0
-4.540657	Паразити	0
-4.540657	консервах	0
-4.540657	ошелешили	0
-4.540657	вчених:	0
-4.213555	лосося	-0.11162927
-3.3879092	відкрили	-0.10783656
-3.6769936	місто	-0.005492408
-4.540657	Європі,	0
-3.8671997	якому	-0.07762415
-3.6769936	загрожує	-0.07254791
-4.540657	цунамі	0
-4.540657	заввишки	0
-4.540657	10-поверховий	0
-3.731632	будинок	0
-4.540657	Телескоп	0
-4.540657	"Габбл"	0
-4.540657	дивом	0
-4.540657	впіймав	0
-4.359158	момент	0
-4.359158	вибуху	0
-4.540657	відомої	0
-4.359158	комети	0
-4.540657	Антибіотик	0
-4.540657	льодовикового	0
-4.540657	періоду.	0
-4.540657	Неандертальці	0
-4.540657	лікували	0
-4.540657	рани	0
-4.540657	березовим	0
-4.540657	дьогтем	0
-4.359158	Банку	0
-4.540657	результат	0
-4.213555	здивував	0
-4.359158	учених	0
-4.359158	Південній	0
-4.359158	Америці	-0.01669016
-4.359158	гігантські	0
-4.540657	тунелі,	0
-4.540657	вириті	0
-4.540657	доісторичними	0
-4.540657	тваринами	0
-4.540657	Скарб	0
-4.540657	присмаком	0
-4.540657	містики:	0
-4.540657	металошукач	0
-3.731632	розкрив	-0.07254791
-4.540657	ритуальну	0
-4.0653625	таємницю	0
-4.540657	залізної	0
-3.731632	доби	0
-4.540657	зафіксували,	0
-4.540657	чорна	0
-4.540657	діра	0
-4.540657	викидає	0
-4.540657	матерію	0
-4.540657	швидкістю	0
-3.6284673	світла	-0.07956304
-3.4441743	7	-0.0764672
-3.3879092	мільйонів	-0.35582054
-4.540657	брехні:	0
-3.5848224	одна	-0.096212424
-4.540657	кістка	0
-4.213555	зруйнувала	0
-4.540657	репутацію	0
-4.540657	найдавнішого	0
-4.359158	предка	0
-3.6769936	людини	0
-4.540657	Таємниці	0
-4.540657	Острова	0
-4.540657	Сонця:	0
-4.540657	невідоме	0
-4.359158	поселення	0
-3.9550755	посеред	-0.06348409
-4.540657	озера	0
-4.540657	Тітікака	0
-2.8449545	(фото)	-0.1299246
-3.234003	хто	-0.043178108
-3.8671997	насправді	0
-4.540657	вирив	0
-4.540657	тунелі	0
-4.540657	Америці:	0
-3.1656277	це	-0.019235715
-3.5088294	люди	-0.04522587
-4.540657	Perseverance	0
-4.540657	виявив	0
-4.359158	Марсі	0
-4.540657	підземну	0
-4.540657	дельту	0
-3.5088294	4	-0.04522587
-3.9550755	мільярдів	-0.0142662395
-4.540657	Сенсаційні	0
-4.359158	знахідки	0
-4.540657	археологів	0
-4.540657	Англії	0
-3.7941475	змінюють	0
-4.540657	залізний	0
-4.540657	вік	0
-4.213555	Бельгії	0
-4.540657	рештки	0
-4.359158	китів	0
-4.540657	зубами	0
-4.540657	акул	0
-4.540657	черепах	0
-4.540657	фатально	0
-4.540657	прорахувалися:	0
-4.213555	моря	0
-3.0929773	вже	-0.0764672
-4.540657	вищий,	0
-4.540657	прогнозувалося	0
-4.213555	раніше	0
-4.540657	Знайдено	0
-4.540657	фізичний	0
-4.540657	доказ:	0
-4.540657	фрагмент	0
-4.540657	викраденого	0
-4.540657	Парфенону	0
-4.540657	мармуру	0
-4.540657	розгадали	0
-4.540657	поверхні	0
-4.359158	астероїда	0
-4.540657	Бенну	0
-4.540657	NVIDIA	0
-4.540657	відправляє	0
-4.540657	космос:	0
-4.359158	відбуватиметься	0
-4.540657	обчислення	0
-4.359158	безпосередньо	0
-4.540657	орбіті	0
-4.540657	Аномальна	0
-4.540657	спека	0
-4.359158	березні	0
-4.540657	б’є	0
-4.213555	рекорди	0
-4.540657	заході	0
-4.540657	рідкісний	0
-4.359158	позитивний	0
-4.213555	тренд	0
-4.540657	льодах	0
-4.540657	Антарктиди	0
-4.540657	Глибоко	0
-2.5344262	під	-0.27797312
-4.540657	шаром	0
-4.540657	льоду.	0
-4.540657	Антарктиді	0
-4.540657	гранітний	0
-4.540657	масив	0
-4.540657	завдовжки	0
-3.731632	100	-0.05222938
-4.0653625	км	-0.08091911
-4.540657	мікрокристали	0
-4.540657	сапфіра	0
-4.540657	рубіна:	0
-4.359158	означає	0
-3.5848224	проблеми	-0.08199355
-4.540657	популярних	0
-4.540657	"дизайнерських"	0
-4.0653625	собак	0
-4.0653625	Дніпрі	-0.0070745302
-4.540657	визначення	0
-4.0653625	дати	0
-4.540657	утворення	0
-3.2727032	міста	-0.09012477
-4.0653625	виходить	-0.08091911
-4.540657	завершальний	0
-4.0653625	етап	-0.0099369325
-4.540657	Фізики	0
-3.731632	заявили,	-0.69480115
-4.540657	нейтронні	0
-4.540657	зорі	0
-3.7941475	відкрити	0
-4.540657	стани	0
-4.540657	матерії	0
-4.540657	Земле,	0
-4.540657	прийом.	0
-4.540657	Стартап	0
-4.540657	K2	0
-4.540657	запустить	0
-4.540657	надпотужний	0
-4.359158	супутник	0
-3.6284673	роботи	0
-4.540657	серверів	0
-4.540657	зірку,	0
-4.213555	виникла	-0.11162927
-4.540657	світанку	0
-4.359158	існування	0
-4.540657	Всесвіту	0
-3.731632	відомо	-0.099262446
-4.540657	Рідкісне	0
-4.540657	видовище:	0
-4.540657	горбатий	0
-4.540657	кит	0
-4.540657	виконав	0
-4.540657	стрибків	0
-4.540657	українськими	0
-4.540657	полярниками	0
-3.9550755	(фото,	-0.49068117
-4.540657	відео)	0
-4.540657	Остання	0
-4.540657	жива	0
-4.540657	істота	0
-4.540657	Землі:	0
-4.540657	переживе	0
-4.213555	всіх	0
-4.540657	Риба	0
-4.359158	знає,	-0.18044904
-4.213555	ви	0
-4.213555	неї	0
-4.540657	дивитеся	0
-3.3622932	Новий	-0.01672411
-4.359158	вид	0
-4.540657	динозавра.	0
-4.540657	Кореї	0
-4.540657	скам’янілість	0
-4.540657	пухнастого	0
-4.540657	малюка	0
-4.213555	розміром	-0.11162927
-4.540657	індика	0
-4.540657	таємничі	0
-4.540657	морські	0
-4.540657	хижаки	0
-4.540657	поїдають	0
-3.9550755	Європі	0
-4.359158	оселився	0
-4.540657	природний	0
-3.5848224	ворог	-0.027712079
-4.540657	Дрозофіли	0
-4.540657	Сузукі	0
-4.540657	Тиранозавр	0
-4.540657	вполював	0
-4.540657	з’їв	0
-4.540657	чотиритонного	0
-4.359158	динозавра	0
-4.540657	66	0
-4.213555	тому	0
-4.359158	Золото	0
-4.540657	смітнику:	0
-4.540657	навчилися	0
-4.540657	добувати	0
-4.540657	дорогоцінний	0
-4.540657	метал	0
-4.540657	електроніки	0
-4.540657	Зуби	0
-4.540657	рисове	0
-4.540657	зерно:	0
-4.540657	пустелі	0
-4.359158	сучасних	0
-4.540657	ссавців,	0
-4.213555	пережив	0
-4.540657	динозаврів	0
-4.540657	печеру,	0
-3.1500928	де	-0.0697153
-4.540657	мешкає	0
-4.540657	найсмертоносніший	0
-4.359158	вірус	0
-4.540657	шлунок,	0
-3.315192	а	-0.05234617
-4.540657	мозок:	0
-4.540657	молекула	0
-4.359158	крові	0
-4.540657	пітона	0
-3.9550755	пропонує	0
-4.213555	підхід	-0.26883242
-4.540657	ожиріння,	0
-3.415131	один	-0.19306241
-4.540657	найбільших	0
-4.540657	коралів	0
-3.6284673	світу	0
-2.8228517	понад	-0.14421538
-4.213555	2000	0
-4.540657	роки:	0
-4.540657	вигляд	0
-3.4752998	він	-0.003287113
-3.3622932	має	-0.06514696
-4.213555	Космічний	-0.11162927
-4.540657	мозок.	0
-3.4752998	вперше	-0.0030809266
-4.540657	навчили	0
-4.540657	керувати	0
-4.540657	гуманоїдним	0
-4.540657	роботом	0
-4.213555	800	0
-4.540657	унікальних	0
-4.540657	космічних	0
-4.213555	подій	0
-3.415131	лише	-0.039363086
-4.540657	Надія	0
-4.540657	стратегія:	0
-4.540657	наука	0
-4.359158	каже	-0.18044904
-4.0653625	успіх	0
-4.540657	кризові	0
-4.0653625	часи	0
-4.540657	Космічне	0
-4.540657	"насіння":	0
-4.359158	унікальні	0
-4.540657	зразки	0
-4.359158	теорію	-0.18044904
-4.540657	виникнення	0
-3.3879092	життя	-0.015022409
-4.540657	острові	0
-4.540657	Сонця	0
-4.540657	сліди	0
-4.540657	5500	0
-4.540657	років,	0
-4.540657	набагато	0
-4.540657	раніше,	0
-4.540657	вважалося	0
-4.540657	дивний	0
-4.540657	тарантулів,	0
-4.540657	бачили	0
-4.359158	Аргентині	0
-4.540657	металеві	0
-4.540657	"скарби":	0
-4.359158	масштаби	0
-4.0653625	вразили	0
-4.540657	Климат	0
-4.540657	Леванта	0
-3.7941475	120	0
-4.0653625	тысяч	0
-4.540657	лет	0
-4.540657	назад	0
-4.540657	был	0
-4.540657	мягким	0
-4.540657	влажным,	0
-4.540657	он	0
-4.540657	снова	0
-4.540657	может	0
-4.0653625	стать	0
-4.540657	таким	0
-4.359158	NASA	0
-3.8671997	запускає	0
-3.9550755	унікальну	0
-4.540657	місію,	0
-3.0929773	щоб	-0.009042288
-4.540657	розкрити	0
-3.545166	втрати	-0.12751982
-4.540657	атмосфери	0
-4.540657	Марсом	0
-4.540657	Рослина-дистилятор.	0
-3.9550755	розкрили	0
-4.540657	інженерний	0
-4.359158	секрет	0
-4.359158	виживання	0
-4.540657	хвоща	0
-3.8671997	протягом	-0.052237842
-4.0653625	400	-0.06348409
-3.1065676	млн	-0.31089354
-3.4441743	Пентагон	-0.26405013
-4.0653625	провів	0
-4.540657	таємний	0
-4.540657	семінар	0
-4.540657	вивчення	0
-4.540657	НЛО	0
-4.213555	допомогою	0
-4.540657	Йому	0
-4.540657	менше	0
-4.540657	океані	0
-4.359158	знайдено	0
-3.7941475	найбільший	-0.18088563
-4.540657	корал	0
-3.1500928	(відео)	-0.029562164
-4.540657	Единбурга	0
-4.540657	перетворювати	0
-4.540657	пластикові	0
-4.359158	пляшки	0
-4.359158	ліки	0
-4.540657	Паркінсона	0
-4.540657	Пухнасті	0
-3.3879092	рятувальники	0
-4.540657	вулкана:	0
-4.540657	ховрахи	0
-3.731632	змінили	-0.034118067
-4.540657	долю	0
-4.540657	Сент-Хеленс	0
-3.6284673	40	-0.064722896
-4.359158	вперед	0
-4.540657	Помірні	0
-4.540657	посухи	0
-4.213555	кількох	0
-3.9550755	регіонах	-0.08253173
-4.540657	одночасно	0
-4.540657	знищити	0
-4.0653625	врожай	0
-4.540657	планеті	0
-4.540657	Математичну	0
-4.540657	премію	0
-4.540657	Абеля	0
-4.359158	присудили	0
-4.540657	поєднання	0
-4.540657	геометрії	0
-4.540657	теорії	0
-4.540657	чисел	0
-4.540657	Підводні	0
-4.540657	археологічні	0
-4.359158	скарби	0
-4.540657	Диярбакира:	0
-4.540657	водах	0
-4.540657	Дікле	0
-4.540657	давні	0
-4.540657	споруди	0
-4.359158	накриє	0
-3.315192	Україну	-0.039722607
-4.540657	19-20	0
-4.213555	якої	0
-3.6769936	сили	-0.0037950303
-4.359158	очікувати	0
-4.540657	захиститися	0
-4.540657	телескоп	0
-4.540657	Hubble	0
-4.359158	випадково	0
-4.540657	зафіксував	0
-3.8671997	руйнування	0
-4.540657	C/2025	0
-4.540657	K1	0
-4.540657	затемнень,	0
-4.540657	історію:	0
-4.213555	справді	0
-3.6769936	стали	0
-4.540657	провісниками	0
-4.540657	біди	0
-4.0653625	історії	0
-4.540657	щось	0
-4.540657	схоже	0
-4.540657	коштовне	0
-4.540657	каміння	0
-4.540657	муміях	0
-4.540657	Стародавнього	0
-4.540657	Єгипту	0
-4.540657	наркотичних	0
-4.540657	речовин	0
-4.540657	Земля	0
-4.540657	втратить	0
-4.540657	сотні	0
-3.731632	людей:	0
-4.540657	2050	0
-3.3879092	року	-0.041667484
-4.540657	зросте	0
-4.540657	знаємо,	0
-3.6769936	скільки	0
-4.540657	антарктичного	0
-4.540657	щита	0
-4.540657	здатне	0
-4.213555	змінити	0
-4.540657	геологію	0
-3.4752998	Під	-0.19501145
-4.540657	поверхнею	0
-4.540657	Марса	0
-4.540657	стародавню	0
-4.540657	річкову	0
-4.540657	«Персеверанс»	0
-4.213555	знайшов	0
-4.540657	дорогоцінні	0
-4.540657	камені	0
-4.359158	побачив	0
-3.8671997	вибух	-0.10261341
-4.540657	комети:	0
-4.540657	невирішена	0
-4.540657	загадка	0
-4.540657	генетичний	0
-4.359158	зв’язок	0
-4.540657	котів	0
-4.540657	Розкрито	0
-4.0653625	характеристики	-0.09597227
-4.359158	орієнтовну	0
-4.0653625	вартість	0
-3.9550755	Samsung	0
-4.359158	Galaxy	0
-4.540657	A57	0
-4.540657	5G	0
-3.545166	Після	0
-4.540657	зламів	0
-4.540657	криптотокени	0
-4.359158	втрачають	0
-4.359158	середньому	0
-4.540657	61%	0
-4.540657	вартості	0
-4.540657	рідко	0
-4.540657	відновлюються	0
-4.359158	Нова	0
-4.540657	розробка	0
-4.540657	фронту:	0
-4.359158	вміє	0
-4.540657	оновлена	0
-4.540657	"ШАБЛЯ	0
-4.540657	К-2"	0
-4.540657	Компанія	0
-4.540657	Caviar	0
-4.540657	кастомізовані	0
-3.9550755	iPhone	0
-3.6769936	17	-0.06348409
-4.0653625	Pro	0
-4.540657	Max,	0
-4.540657	присвячені	0
-3.545166	Українські	-0.052237842
-4.540657	розробники	0
-4.213555	представили	0
-4.540657	важкий	0
-3.6769936	дрон	-0.19525406
-4.540657	Vampire	0
-4.359158	нічних	-0.18044904
-3.3381045	ударів	-0.2684296
-3.6284673	Польща	-0.06348409
-4.359158	завершує	0
-4.540657	національного	0
-4.540657	дрона-камікадзе	0
-4.540657	Honor	0
-4.540657	Magic	0
-4.540657	9:	0
-4.540657	компактний	0
-4.540657	флагман	0
-3.8671997	отримає	-0.052237842
-4.359158	камеру	0
-3.9550755	200	-0.11159309
-4.540657	Мп	0
-4.213555	батарею	0
-4.540657	8000	0
-4.540657	мАг	0
-3.9550755	планує	0
-4.359158	інвестувати	0
-4.213555	рекордні	0
-4.540657	$73	0
-4.359158	мільярди	0
-4.540657	чипів	0
-4.540657	основі	0
-4.359158	штучного	-0.18044904
-4.540657	інтелекту	0
-3.7941475	Для	-0.04437948
-4.540657	щоденного	0
-4.540657	носіння.	0
-3.6284673	створили	0
-4.540657	тонкий	0
-4.540657	генератор,	0
-4.359158	виробляє	0
-4.540657	електрику	0
-4.540657	тепла	0
-4.213555	тіла	-0.08091911
-4.540657	Kena:	0
-4.359158	Bridge	0
-4.213555	of	0
-4.540657	Spirits	0
-4.213555	з’явиться	0
-4.540657	Nintendo	0
-4.540657	Switch	0
-3.9550755	26	-0.06348409
-4.540657	Банк	0
-4.540657	Британии	0
-4.540657	намерен	0
-4.540657	сократить	0
-4.540657	сотрудников,	0
-4.540657	заменив	0
-4.540657	их	0
-4.540657	ИИ	0
-4.540657	Fnatic	0
-3.6284673	офіційно	0
-4.213555	стає	0
-4.540657	«українською»:	0
-4.359158	складу	0
-4.540657	британської	0
-4.540657	кіберспортивної	0
-3.7941475	команди	-0.04437948
-4.359158	приєднався	0
-4.540657	18-річний	0
-4.540657	Br4tkO	0
-4.540657	Інтернет	0
-4.540657	замком:	0
-3.731632	Путін	-0.09908345
-3.8671997	пояснив,	-0.052237842
-3.9550755	навіщо	0
-3.4752998	Росії	-0.055515476
-4.540657	блокують	0
-3.8671997	мережу	0
-3.8671997	Ще	0
-4.540657	гучна	0
-4.540657	перестановка	0
-4.540657	Ubisoft:	0
-4.540657	творців	0
-4.540657	Rainbow	0
-4.540657	Six	0
-4.540657	закриють	0
-4.540657	переведуть	0
-4.540657	"техпідтримку"	0
-4.540657	Бельгійський	0
-4.213555	стартап	0
-4.540657	FN	0
-4.540657	Herstal	0
-3.9550755	представив	0
-4.540657	багаторівневу	0
-4.540657	антидронову	0
-4.540657	систему,	0
-4.540657	оснащену	0
-4.540657	гарматою,	0
-4.540657	кулеметом	0
-4.540657	рушницею	0
-4.540657	припиняє	0
-4.213555	випуск	0
-4.540657	TriFold	0
-3.3381045	три	-0.047317628
-4.540657	місяці:	0
-4.359158	пішло	0
-3.7941475	так	0
-4.540657	Розміром	0
-4.540657	ніготь.	0
-4.213555	Китай	0
-3.5088294	заявив	-0.48191562
-4.359158	масове	-0.01669016
-3.9550755	виробництво	0
-4.540657	найменшого	0
-4.540657	атомного	0
-4.540657	годинника	0
-4.359158	17e	0
-4.540657	автономністю:	0
-4.213555	обійшов	0
-4.540657	закриє	0
-4.540657	телевізійний	0
-3.9550755	завод	0
-4.540657	Словаччині	0
-4.0653625	травня	0
-4.540657	Топ-5	0
-4.540657	Р2Р	0
-4.540657	маркетплейсів	0
-4.540657	Xiaomi	0
-4.540657	повертається:	0
-4.540657	Notebook	0
-3.8671997	14	-0.11162927
-4.540657	Intel	0
-4.540657	Panther	0
-4.540657	Lake	0
-4.540657	підкорює	0
-4.213555	ринок	0
-4.540657	premium-ультрабуків	0
-4.213555	Розкриті	-0.26883242
-4.540657	технічні	-0.052127473
-3.7941475	нового	-0.038577624
-4.0653625	французького	-0.0099369325
-4.540657	ударного	-0.052127473
-3.6284673	дрона	-0.042059805
-4.540657	MX-10	0
-4.540657	Damocles	0
-4.540657	Приплив	0
-4.540657	Bitcoin	0
-4.540657	криптобіржі	0
-4.540657	зріс	0
-4.540657	6100	0
-4.540657	BTC	0
-4.540657	годину,	0
-4.213555	ціна	0
-4.540657	вперлася	0
-4.540657	$75	0
-4.0653625	000	0
-4.540657	Міні-ПК	0
-4.359158	Arctic	-0.18044904
-4.540657	Senza	-0.052127473
-4.540657	A1	-0.052127473
-4.540657	370:	0
-4.540657	особливості,	0
-4.359158	новинки	0
-4.213555	проводить	0
-4.540657	реструктуризацію	0
-4.540657	бізнесу,	0
-4.540657	зосередитися	0
-4.540657	серверах	0
-4.540657	гуманоїдних	0
-4.540657	роботах	0
-4.540657	Покупки	0
-4.540657	сайтів:	0
-4.359158	AI	0
-4.359158	перехоплює	0
-4.540657	e-commerce	0
-4.540657	Безшумний	0
-4.540657	міні-ПК	0
-4.540657	Топовий	0
-4.540657	Ryzen	0
-4.540657	AI,	0
-4.359158	видасть	0
-4.359158	ні	0
-4.540657	звуку	0
-4.0653625	OpenAI	0
-4.359158	купує	0
-4.540657	Astral:	0
-4.213555	крок	0
-4.540657	Codex	0
-4.540657	Оплата	0
-4.540657	авторів.	0
-3.9550755	Глава	-0.28142646
-4.540657	Patreon	0
-3.5088294	заявив,	-0.9056545
-4.540657	аргумент	0
-4.540657	ШІ-компаній	0
-4.540657	«чесне	0
-4.540657	використання»	0
-4.540657	хибним	0
-4.359158	Може	0
-4.359158	статися	0
-4.540657	біда:	0
-3.415131	яку	-0.018860605
-4.540657	побутову	0
-3.731632	техніку	0
-4.540657	ставити	0
-4.359158	поряд	-0.18044904
-4.540657	газовими	0
-4.540657	приладами	0
-4.540657	Mutant	0
-4.540657	XL	0
-4.540657	Найкоротший	0
-4.540657	роз'єм	0
-4.540657	RJ45	0
-4.540657	технологією	0
-4.540657	з'єднання	0
-4.540657	IDC	0
-4.540657	Metz	0
-4.540657	Connect	0
-4.359158	Apple	0
-4.540657	виправить	0
-4.359158	помилку	0
-4.540657	клавіатури	0
-4.359158	iOS	0
-4.540657	26.4	0
-4.540657	Бренд	0
-4.540657	Zeno	0
-4.540657	розумний	0
-4.540657	ШІ-диктофон	0
-4.540657	Weaver	0
-4.540657	підтримкою	0
-4.359158	ChatGPT	0
-4.540657	4.0	0
-4.213555	Канада	0
-4.0653625	посилюють	-0.08091911
-3.7941475	співпрацю	-0.21411693
-4.213555	сфері	0
-4.540657	даних:	0
-4.359158	підписано	0
-4.359158	закон	0
-4.0653625	Гравець	0
-4.540657	FURIA	0
-4.213555	капітана	-0.11162927
-4.540657	клубу:	0
-4.540657	«Його	0
-4.0653625	відсутність	0
-4.540657	сильно	0
-4.540657	впливає»	0
-4.540657	Anthropic	0
-3.9550755	провела	0
-3.9550755	масштабне	0
-4.213555	користувачів	0
-4.359158	ШІ:	0
-4.359158	80	0
-4.540657	159	0
-4.540657	Siemens	0
-4.540657	Rittal	0
-4.0653625	уклали	0
-4.359158	стратегічне	-0.18044904
-4.0653625	партнерство	0
-4.359158	сегменті	0
-4.540657	ЦОД	0
-4.359158	Німецький	0
-4.540657	eternal.ag	0
-4.540657	автономного	0
-4.213555	робота	0
-4.540657	збору	0
-3.9550755	врожаю	0
-4.540657	Корисніша	0
-4.540657	система.	0
-4.540657	Гендиректор	0
-4.359158	Nothing	0
-4.359158	додатки	0
-4.540657	зникнуть	0
-3.8671997	розвиток	-0.052237842
-3.5088294	готує	-0.021623095
-3.5848224	ракети	-0.09164913
-4.540657	Москві:	0
-4.540657	німецькому	0
-4.213555	TikTok	0
-4.540657	ШІ-фейків,	0
-4.540657	дискредитують	0
-4.540657	Death	0
-4.540657	Stranding	0
-4.359158	2:	0
-4.540657	On	0
-4.540657	the	0
-4.540657	Beach	0
-4.540657	вийшла	0
-4.540657	PC	0
-4.540657	можливості	0
-4.540657	відгуки	0
-4.540657	гравців	0
-3.731632	запустили	0
-4.359158	революційну	0
-4.359158	лінію	0
-4.540657	очищення	0
-4.540657	урану:	0
-4.540657	технологічний	0
-4.0653625	прорив	-0.08091911
-4.540657	70-річного	0
-4.540657	затишшя	0
-4.540657	зменшила	0
-3.4441743	кількість	-0.2169345
-4.540657	наполегливих	0
-4.540657	підказок	0
-4.359158	німецького	0
-4.540657	наземного	0
-4.540657	роботизованого	0
-4.213555	комплексу	0
-4.540657	Hector	0
-4.540657	Spigen	0
-3.8671997	показала	0
-4.540657	аксесуари	0
-4.540657	стилі	0
-4.213555	перших	0
-4.540657	комп'ютерів	0
-4.540657	Crystal	0
-4.540657	Dynamics	0
-3.8671997	оголосила	-0.04437948
-4.540657	четверту	0
-4.359158	хвилю	0
-4.540657	звільнень	0
-4.540657	OnePlus	0
-4.540657	15T	0
-4.540657	представлять	0
-4.359158	наступного	-0.025282111
-4.540657	тижня:	0
-4.540657	смартфона	0
-3.5848224	передали	0
-4.213555	унікальний	0
-4.540657	танк	0
-4.540657	"Леопард":	0
-4.540657	з'явилося	0
-3.215874	його	-0.009042288
-3.3381045	фото	-0.047317628
-4.540657	Конфлікт	0
-4.213555	Близькому	-0.11393884
-4.540657	Сході	0
-4.540657	СОТ	0
-4.359158	Нове	0
-4.213555	покоління	0
-4.540657	доступних	0
-4.540657	смартфонів:	0
-4.540657	iРhone	0
-4.540657	256	0
-4.359158	Процес	0
-4.540657	простішим:	0
-4.213555	зможуть	0
-4.540657	розлучатися	0
-4.540657	Дію	0
-4.540657	Датчики	0
-4.540657	раннього	0
-4.359158	попередження	-0.18044904
-4.540657	жовту	0
-4.540657	іржу	0
-4.540657	розробили	0
-4.540657	британські	0
-4.540657	Casio	0
-4.213555	випустила	0
-4.540657	кнопковий	0
-4.540657	калькулятор	0
-4.359158	вартістю	0
-4.540657	600	0
-3.6769936	доларів	-0.063484125
-4.540657	Китайські	0
-4.359158	інженери	0
-4.540657	атомний	0
-4.359158	годинник	0
-4.359158	вагою	0
-4.540657	грамів	0
-4.540657	Valve	0
-4.540657	змінила	0
-4.213555	ключову	0
-4.540657	механіку	0
-4.540657	Counter-Strike	0
-4.540657	2,	0
-4.540657	збільшивши	0
-3.0193145	й	0
-4.540657	ставки	0
-4.540657	Tech	0
-4.540657	Layoffs	0
-3.731632	2026:	0
-4.540657	дійсно	0
-4.540657	призводить	0
-4.359158	скорочення	0
-4.359158	робочих	0
-4.213555	місць	-0.11162927
-4.540657	технологічних	0
-4.540657	компаніях	0
-3.3622932	Російські	-0.33883503
-4.540657	хакери	0
-4.540657	зламували	0
-4.359158	крадіжки	0
-4.359158	даних	0
-4.540657	аналіз	0
-4.540657	дослідників	0
-4.540657	iVerify,	0
-4.540657	Lookout	0
-4.540657	Google	0
-4.540657	онлайн-челендж	0
-4.540657	шансом	0
-3.4752998	отримати	-0.013635067
-3.9550755	компанії	0
-4.540657	Людиноподібний	0
-4.540657	робот	0
-4.540657	Unitree	0
-4.213555	навчився	-0.11162927
-4.359158	грати	0
-4.540657	теніс	0
-4.540657	записами	0
-4.540657	гравців-аматорів	0
-4.540657	Nasdaq	0
-3.545166	отримала	-0.016690185
-4.359158	дозвіл	0
-4.540657	SEC	0
-4.359158	торгівлю	0
-4.540657	токенізованими	0
-4.540657	акціями	0
-4.540657	OPPO	0
-4.540657	Find	0
-4.540657	N6:	0
-4.359158	найбільш	0
-4.540657	технічно	0
-4.540657	вражаючий	0
-4.540657	складаний	0
-4.540657	смартфон	0
-4.359158	останні	0
-4.540657	«Багатії	0
-4.540657	майбутнього»:	0
-4.0653625	експерт	0
-3.6769936	розповів,	-0.14390415
-4.540657	професії	0
-4.540657	залишаться	0
-4.213555	поза	0
-4.359158	впливом	0
-4.213555	розширює	0
-4.540657	функціонал	0
-4.540657	ChatGPT:	0
-4.540657	змінитись	0
-4.540657	Blackview:	0
-4.540657	захищені	0
-4.540657	пристрої,	0
-4.540657	перевернуть	0
-4.540657	ваше	0
-4.359158	мобільну	0
-4.540657	Штучний	0
-4.540657	інтелект	0
-4.359158	утік	0
-4.0653625	своєї	0
-4.540657	клітки	0
-4.540657	подався	0
-4.540657	злочинний	0
-4.540657	світ:	0
-4.540657	наробив	0
-4.540657	AI-браузер	0
-4.359158	Comet	0
-3.315192	став	-0.054992896
-4.213555	безкоштовно	0
-4.540657	доступним	0
-3.7941475	знайти	0
-4.540657	найкращу	0
-4.359158	заміни	0
-4.540657	вашому	0
-4.540657	ноутбуці	0
-4.540657	Особистий	0
-4.359158	помічник.	0
-4.359158	Perplexity	0
-4.213555	безкоштовний	0
-4.359158	ШІ-браузер	-0.18044904
-4.359158	Нафтовий	0
-4.359158	удар:	0
-4.540657	поставила	0
-3.8671997	загрозу	0
-4.540657	ШІ-галузі	0
-4.540657	ВТО	0
-4.540657	must-have	0
-4.540657	додатків	0
-4.359158	подорожі	0
-4.540657	новачків	0
-4.540657	Тепер	0
-4.540657	Бронювання	0
-4.359158	Дії	0
-4.540657	спрощено:	0
-4.540657	змінилось	0
-4.540657	оновленням	0
-4.540657	Американці	0
-4.0653625	2025	-0.020106563
-4.0653625	році	0
-4.540657	$6,4	0
-3.252922	млрд	-0.19365339
-4.359158	обмін	-0.025282111
-4.540657	старих	0
-4.540657	смартфонів	0
-4.540657	Android	0
-4.540657	копирсається	0
-4.540657	ваших	0
-4.540657	нотатках,	0
-4.540657	секретну	0
-3.7941475	інформацію	-0.28693777
-4.359158	Найкращі	0
-4.540657	фени	0
-4.0653625	року:	0
-4.540657	вибір	0
-4.540657	будь-який	0
-4.359158	бюджет	0
-3.731632	Нічна	-0.39608222
-3.7941475	атака	-0.14805548
-3.4752998	БпЛА	-0.05824195
-4.540657	Харків:	0
-3.1500928	пошкоджено	-0.087987
-4.213555	навчальний	-0.11162927
-4.540657	заклад,	0
-3.6769936	будівлі	-0.008756034
-4.359158	вибито	0
-4.213555	вікна	-0.0099369325
-4.213555	Харкові	-0.026469724
-4.213555	пролунав	0
-4.540657	Терехов	0
-4.540657	вказав	0
-3.7941475	місце	-0.038577624
-4.540657	влучення	0
-4.359158	Захисники	0
-3.4752998	ліквідували	-0.10650205
-3.3381045	російського	-0.15740763
-4.540657	боксера-окупанта:	0
-3.7941475	відомі	-0.030583069
-2.5853667	РФ	-0.16287602
-4.0653625	вдарила	-0.08838047
-3.4752998	поблизу	-0.07571811
-4.359158	навчального	0
-4.359158	закладу	-0.025282111
-4.213555	воїни	0
-4.359158	48	-0.11162927
-3.9550755	годин	-0.061570607
-3.1065676	знищили	-0.046722107
-4.359158	роту	-0.01669016
-3.0929773	окупантів	-0.11909834
-4.359158	Покровському	-0.086842
-3.415131	напрямку	-0.03961333
-4.540657	"Чекаємо	0
-4.359158	їхній	0
-4.540657	весняно-літній	0
-4.540657	наступ":	0
-4.359158	Трегубов	0
-3.8671997	ситуацію	-0.07114672
-4.540657	Куп'янську	0
-4.540657	наступу	0
-4.359158	Харківщині	-0.015406688
-4.213555	Мешканців	0
-4.213555	«ЛНР»	0
-4.540657	зобов’язують	0
-4.359158	перереєстровувати	0
-3.8671997	квартири	-0.052237842
-4.359158	російському	0
-4.359158	порталі	0
-4.359158	Нацгвардійці	0
-3.3622932	росіян	-0.13591218
-4.213555	Український	0
-4.540657	F-16	0
-3.6769936	знищив	0
-3.8671997	міст	0
-3.7941475	Запоріжжі	-0.043485064
-4.540657	окупанта,	0
-4.213555	мав	0
-3.9550755	собі	0
-4.540657	"цікавий"	0
-4.540657	рапорт.	0
-3.731632	Фото	-0.038577624
-4.0653625	Миколаївській	-0.18451644
-3.06701	області	-0.06252268
-4.213555	вибухи:	0
-4.0653625	Миколаїв	0
-4.540657	летять	0
-4.540657	"Шахеди"	0
-4.213555	Двоє	0
-3.8671997	медиків	-0.04437948
-4.213555	поранені:	-0.11162927
-4.359158	FPV-дрон	0
-3.5088294	вдарив	-0.30968824
-4.540657	«швидкій»	0
-2.8300948	Росіяни	-0.3456034
-4.359158	цілеспрямовано	-0.18044904
-3.120597	ТЦК	-0.15842524
-4.213555	Сумщині	-0.033062965
-4.0653625	Чернігівщині	-0.0069086966
-4.359158	ОК	0
-4.540657	«Північ»	0
-3.7941475	війська	-0.03733744
-3.6769936	вбили	-0.07254791
-3.9550755	Запорізькій	-0.14080973
-3.9550755	мережі	-0.008264922
-3.8671997	показали,	-0.28693777
-4.213555	виглядає	0
-4.540657	«звільнене»	0
-4.359158	російською	0
-4.359158	армією	0
-4.540657	Селидове	0
-4.540657	Донецької	0
-3.4752998	вдарили	-0.44036412
-4.540657	Корабельному	-0.052127473
-3.545166	району	0
-4.213555	Херсона:	-0.01669016
-3.252922	поранено	-0.1386731
-4.213555	літню	-0.26883242
-3.7941475	жінку	-0.07114672
-4.359158	Дрон	0
-4.540657	уразив	0
-4.540657	позиції:	0
-4.359158	Дніпропетровській	-0.18044904
-3.0797997	загинув	-0.11689699
-4.540657	старший	0
-4.359158	солдат	0
-3.731632	Андрій	-0.13799173
-4.540657	Васильковський	0
-3.6769936	атакувала	-0.090449855
-4.359158	райони	0
-4.540657	Дніпровщини:	0
-3.415131	пошкоджені	-0.16248089
-4.213555	будинки,	-0.01245711
-3.5848224	ліцей	-0.11675566
-4.540657	пожежна	0
-3.6284673	частина	-0.064722896
-4.213555	Запорізькому	-0.11156598
-4.540657	розвідники	0
-4.213555	зачистили	0
-3.8671997	населених	-0.5698624
-4.540657	пунктів	0
-4.540657	карта	0
-3.215874	19	-0.5533658
-2.8087175	(ВІДЕО)	-0.10321783
-4.540657	ОВА:	0
-3.545166	російські	-0.10011073
-4.359158	автодорозі	0
-4.0653625	Запоріжжі,	-0.11162927
-3.8671997	загинула	-0.11162927
-3.4441743	жінка	-0.10805359
-4.540657	Держдумі	0
-4.540657	поскаржилися,	0
-4.540657	лавах	-0.025282111
-2.9662328	ЗСУ	-0.090710066
-4.359158	воюють	0
-4.0653625	бойові	0
-4.540657	термінатори	0
-3.7941475	Майже	-0.04437948
-3.6284673	30	-0.0313801
-3.6769936	атак	-0.094764166
-3.731632	поранена	-0.034118067
-4.540657	людина:	0
-3.9550755	ситуація	-0.1378635
-4.359158	Дніпропетровщині	-0.00352286
-4.359158	вечір	0
-4.540657	Виробити	0
-4.213555	тепер	0
-4.540657	то	0
-4.540657	просто:	0
-4.540657	Коваленко	0
-4.540657	серйозних	0
-4.359158	проблем	0
-3.731632	прикордонники	-0.08253173
-3.1500928	російських	-0.17609186
-4.359158	загарбників	0
-3.6769936	разом	-0.44492364
-4.540657	їхнім	0
-4.540657	мінометом	0
-4.540657	Давид	0
-4.540657	Босий	0
-4.540657	Старого	0
-4.540657	Села	0
-4.0653625	бою	0
-4.359158	Херсонщині	-0.010655511
-3.4441743	окупанти	0
-4.540657	“перезапускають”	0
-4.540657	вкрадений	0
-3.8671997	свої	0
-4.359158	стандарти	0
-4.540657	Збройні	0
-4.540657	зривають	0
-4.0653625	весняний	-0.08091911
-4.359158	наступ	0
-3.8671997	армії	-0.13799173
-3.7941475	РФ:	0
-3.2934282	подробиці	-0.12806468
-3.5848224	розповів	-0.33863476
-4.540657	Ягун	0
-3.7941475	захисник	-0.07046209
-4.540657	Городенківської	-0.052127473
-3.1065676	громади	-0.026871266
-3.9550755	Михайло	-0.49068117
-4.540657	Старків	-0.01245711
-3.415131	СБУ	-0.059232578
-3.8671997	Львівщини	0
-3.9550755	прокоментували	-0.008264922
-4.213555	приліт	-0.08091911
-3.252922	внаслідок	-0.27722716
-3.3381045	удару	-0.24864082
-3.415131	ОВА	-0.059386734
-4.540657	окопах,	0
-4.540657	кущах,	0
-4.540657	технікою:	0
-3.5088294	дрони	-0.09925233
-4.540657	загнали	0
-4.540657	штурмовиків	0
-4.540657	пробили	0
-4.540657	щит	0
-4.540657	повітряної	0
-3.6769936	оборони	-0.019156927
-3.5088294	над	-0.041275516
-4.540657	Кримом	0
-3.5848224	Армія	-0.48323238
-4.540657	Донбасі:	0
-4.359158	несе	0
-3.9550755	там	0
-4.540657	колосальні	0
-3.0797997	Окупанти	-0.10619312
-3.8671997	разів	-0.12030856
-4.0653625	обстріляли	0
-4.359158	Дніпропетровщину:	-0.01669016
-3.2934282	суд	-0.032727443
-4.213555	засудив	-0.005492408
-4.359158	українців,	0
-4.540657	викрадених	0
-4.359158	Мелітополя	0
-4.540657	юристка	0
-4.359158	масований	0
-4.359158	регіони	0
-3.9550755	об'єкти	-0.052237842
-4.359158	стануть	0
-4.359158	ціллю	0
-3.06701	Ворог	-0.25495848
-4.213555	змінив	0
-4.540657	тактику:	0
-3.5088294	назвав	-0.041275516
-4.540657	напрямки,	0
-4.540657	концентрує	0
-4.359158	Донеччині	-0.006599296
-4.359158	Захисник	-0.01669016
-4.0653625	Житомирської	-0.01245711
-3.731632	продовжують	0
-3.9550755	спроби	-0.0099369325
-3.8671997	повністю	0
-4.540657	оволодіти	0
-4.359158	Покровськом	0
-4.540657	Мирноградом	0
-4.540657	"Схід"	0
-4.540657	небі	0
-3.9550755	Україною	-0.011486104
-4.540657	літають	0
-4.359158	"Шахеди":	0
-3.9550755	зараз	0
-4.359158	небезпека	0
-4.540657	Єдине	0
-4.540657	майбутнє	0
-4.213555	російська	-0.01669016
-4.540657	армія:	0
-3.5848224	працює	-0.052237842
-4.540657	освіта	0
-4.359158	ТОТ	-0.04437948
-3.731632	Війна	-0.038577624
-4.213555	забрала	-0.01669016
-3.7941475	воїна	-0.038577624
-4.540657	Дніпропетровської	0
-4.540657	Кирила	0
-4.540657	Суворова	0
-3.9550755	Краматорськ	0
-4.0653625	обстріл	0
-3.6284673	Від	0
-3.6284673	300	-0.26611233
-4.540657	550	0
-4.213555	громадян	0
-4.540657	Колумбії	0
-3.2727032	загинули	-0.22560254
-4.359158	фронті	-0.040062472
-4.540657	Зник	0
-3.7941475	безвісти	0
-4.359158	2022	0
-4.540657	році:	0
-4.540657	підтвердилася	0
-3.8671997	загибель	-0.038577624
-3.8671997	Волині	-0.02802671
-4.359158	Віктора	-0.025282111
-4.540657	Михальчука	0
-3.8671997	Бійці	-0.11393884
-4.540657	«Азову»	0
-3.6284673	взяли	-0.27268744
-4.359158	полон	-0.11162927
-4.540657	27	0
-4.540657	Добропільському	0
-3.4441743	Російський	-0.3045482
-4.213555	вбив	0
-3.415131	військового	-0.088710316
-4.359158	Харківського	0
-4.540657	«Осі»	0
-4.540657	вирвали	0
-4.540657	жало:	0
-4.540657	пілоти	0
-4.540657	вполювали	0
-3.6769936	російський	-0.08091911
-3.6769936	ЗРК	-0.029695109
-4.540657	поширює	0
-4.359158	фейки	0
-4.213555	евакуацію	0
-4.540657	зриву	0
-4.540657	рятувальних	0
-4.359158	операцій	0
-3.8671997	штаб	-0.04534048
-4.359158	базу	0
-4.359158	Донецьку	0
-4.359158	житель	0
-4.540657	Доманівської	0
-3.8671997	Олег	0
-4.540657	Устименко	0
-4.540657	піде	0
-3.5848224	Лукашенко	-0.24216715
-4.540657	наступ:	0
-4.540657	генерал	0
-3.731632	нових	0
-4.540657	навчань	0
-2.9466927	біля	-0.047567736
-4.540657	кордонів	0
-3.5848224	"Ми	0
-4.540657	знайдемо	0
-4.540657	ліквідуємо	0
-4.540657	росіян":	0
-4.359158	інтерв'ю	0
-4.359158	бійця	0
-4.540657	"Артану"	0
-4.540657	спецоперації	0
-3.4441743	ГУР	-0.11017971
-3.6284673	заявили	-0.44183972
-4.540657	«належність	0
-4.540657	росії»	0
-4.540657	артефактів	0
-4.540657	Херсонеса	0
-4.0653625	семеро	-0.06348409
-3.545166	захисників	-0.07510656
-4.213555	Полтавщини	-0.0070745302
-4.540657	Журналіст	0
-4.540657	опублікував	0
-4.359158	світлини	0
-4.0653625	руйнувань	0
-4.540657	Бахмуті	0
-3.181739	атакували	-0.07878042
-4.540657	Дніпропетровщину,	0
-4.213555	постраждала	-0.01669016
-3.731632	дня	-0.004940034
-4.359158	Пілот	0
-4.540657	«Халк»	0
-4.540657	лускає	0
-4.540657	«Шахеди»,	0
-4.540657	горішки:	0
-4.540657	збиттів	0
-3.545166	уразили	-0.020748522
-3.9550755	комплекс	-0.0070745302
-4.540657	$50	0
-3.215874	військових	-0.08628819
-4.540657	Кіровоградської	-0.052127473
-4.540657	Завод	0
-4.540657	“Уралхіму”	0
-4.540657	припиняв	0
-4.540657	далекобійних	0
-4.540657	Прокуратура:	0
-3.5088294	троє	-0.13559107
-3.3622932	жителів	-0.08519957
-3.5848224	Сумщини	-0.020147586
-3.252922	постраждали	-0.16439813
-4.0653625	Рада	0
-3.9550755	зміни	-0.1378635
-4.0653625	мобілізації:	0
-4.540657	перевірять	0
-3.9550755	мільйон	-0.06348409
-4.540657	"необлікованих"	0
-4.359158	переглянуть	0
-4.0653625	бронювання	-0.06348409
-3.8671997	тим,	-0.21999095
-4.540657	обіцяв:	0
-3.415131	чим	-0.03504751
-4.540657	займається	0
-4.540657	Єрмак	0
-4.359158	Ліна	-0.18044904
-4.213555	Костенко	-0.0099369325
-4.359158	святкує	0
-4.540657	96-річчя:	0
-4.213555	відомих	0
-4.0653625	привітав	0
-4.359158	поетесу	0
-4.359158	Поляки	0
-4.540657	шукатимуть	0
-4.359158	жертв	-0.18044904
-4.359158	Волинської	-0.025282111
-4.359158	трагедії	-0.01669016
-4.359158	Рівненщині	0
-4.213555	Найщасливіші	-0.11162927
-4.359158	країни:	0
-4.359158	111-те	-0.18044904
-3.7941475	147	-0.03588579
-4.540657	Британський	0
-4.0653625	волонтер	0
-4.540657	зібрав	0
-4.213555	150	0
-4.359158	фунтів	0
-4.540657	стерлінгів	0
-3.8671997	500	0
-4.213555	сімей	-0.01245711
-4.540657	нотаріус	0
-4.359158	перевіряє	0
-4.359158	обсяг	0
-4.540657	цивільної	0
-4.540657	дієздатності	0
-4.359158	фізичної	0
-4.359158	особи	0
-4.540657	посвідченням	0
-4.540657	правочину	0
-4.0653625	пояснення	-0.06348409
-4.540657	Знайшла	0
-4.359158	170	0
-4.0653625	пішла	-0.08091911
-4.0653625	відома	0
-4.540657	собака-рятувальниця	0
-3.545166	проведуть	-0.047988757
-4.359158	останню	-0.025282111
-4.0653625	дорогу	-0.04534048
-3.9550755	Героя	-0.052237842
-4.359158	Дмитра	0
-4.540657	Шудру	0
-4.540657	Мапу	0
-4.359158	можливостей	0
-4.540657	ВПО:	0
-3.9550755	усі	-0.008264922
-4.540657	вакансії,	0
-4.359158	навчальні	0
-3.7941475	програми	0
-4.359158	гранти	-0.18044904
-4.213555	одній	-0.0750061
-4.359158	карті	0
-4.540657	Популярний	0
-4.359158	адвокат	0
-4.213555	Євген	0
-4.359158	Пронін	0
-4.540657	місячний	0
-4.540657	заробіток	0
-4.213555	витрати	0
-4.540657	Декрет	0
-4.0653625	батько	0
-4.0653625	взяти	0
-4.213555	більше,	-0.26883242
-4.540657	«чотири	0
-4.540657	місяці»	0
-4.540657	Інструктори	0
-3.731632	були	-0.038577624
-4.540657	здивовані,	0
-4.540657	збивають	0
-4.540657	так,	-0.025282111
-4.0653625	The	-0.11162927
-4.359158	Times	0
-3.9550755	Сумах	-0.017572328
-3.5848224	попрощалися	-0.45275205
-4.213555	двома	-0.0099369325
-4.540657	захисниками	0
-4.0653625	"Це	0
-3.7941475	питання	-0.04437948
-4.540657	нацбезпеки":	0
-4.0653625	закликали	0
-4.359158	втручання	0
-4.540657	адвокатів	0
-3.3381045	Понад	-0.06775392
-3.545166	рік	-0.022078812
-4.213555	вважався	-0.26883242
-4.213555	зниклим	-0.15461314
-4.359158	безвісти:	-0.08091911
-4.540657	Юрія	0
-4.540657	Кравчука	0
-4.359158	лауреатів	0
-4.540657	літературної	0
-4.0653625	премії	0
-4.540657	«Благовіст»	0
-4.540657	посольства	0
-4.0653625	скасували	-0.08091911
-4.540657	показ	0
-4.359158	пропагандистського	-0.18044904
-3.7941475	фільму	0
-4.540657	Сержанта	0
-4.359158	Хуста	0
-3.8671997	нагородили	-0.052237842
-4.540657	«Золотим	-0.052127473
-4.540657	хрестом»	0
-4.540657	«Стоїть	0
-4.540657	діла,	0
-4.540657	будинках	0
-4.540657	мерзнуть»:	0
-3.7941475	мешканці	0
-4.540657	Рембази	0
-4.540657	Київраду	0
-3.731632	відновити	-0.08838047
-4.540657	закинуту	0
-4.540657	котельню	0
-3.5088294	роки	-0.039111596
-4.359158	надії:	0
-3.6284673	підтвердили	-0.06348409
-3.5088294	захисника	-0.16282676
-4.540657	Пілотна	0
-4.540657	старша	0
-4.540657	школа:	0
-4.540657	зміниться	-0.052127473
-4.540657	дев’ятикласників	0
-4.540657	Гайсинщина	0
-3.120597	знову	-0.009327939
-4.359158	жалобі:	0
-3.7941475	попрощаються	-0.44492364
-4.540657	героєм	0
-4.359158	Віктором	0
-4.540657	Дзюбенком	0
-4.213555	Норвегії	0
-3.9550755	виставку	-0.030583069
-3.8671997	української	0
-4.540657	фотографії,	0
-4.540657	присвячену	0
-4.540657	загиблому	0
-4.213555	Костянтину	-0.11162927
-4.540657	Гузенку	0
-4.359158	модернізують	0
-4.540657	наукову	0
-3.545166	інфраструктуру	-0.08947689
-3.4752998	підтримку	-0.061208364
-4.540657	"Тут	0
-4.0653625	я	0
-4.540657	мету":	0
-4.540657	мексиканець	0
-4.540657	позивним	0
-4.540657	"Бетмен"	0
-4.540657	воює	0
-4.540657	Добропіллі	-0.025282111
-3.731632	попри	0
-4.540657	комунікацій	0
-3.7941475	обстріли	0
-4.0653625	залишаються	-0.06348409
-4.213555	900	-0.11162927
-3.6284673	цивільних	0
-4.540657	Буданов	0
-4.540657	процитував	0
-4.540657	вірші	0
-4.213555	Ліни	-0.26883242
-3.415131	її	-0.0023453778
-4.0653625	народження	-0.038577624
-4.540657	запроваджують	0
-3.8671997	правила	0
-4.213555	управління	-0.01669016
-4.540657	ризиками	0
-4.540657	затоплень:	0
-4.540657	Бериславщині	0
-4.213555	загиблим	-0.0099369325
-4.0653625	захисником	0
-4.0653625	Андрієм	0
-4.540657	Перваком	0
-4.540657	"Герой	0
-4.540657	нас":	0
-3.9550755	Харків	0
-3.9550755	попрощався	-0.28142646
-4.540657	медиком,	0
-4.540657	вбила	0
-4.359158	прямо	0
-4.540657	швидкій	0
-4.540657	працюємо,	0
-4.359158	бо	0
-4.540657	воюють":	0
-4.540657	волонтерка	0
-4.213555	Юлія	0
-4.540657	Толмачова	0
-3.2727032	допомогу	-0.15511847
-4.540657	армії,	0
-4.540657	серйозне	0
-3.7941475	поранення	-0.030583069
-4.540657	ветеранами	0
-4.540657	Турійськ	0
-4.540657	скорботі:	0
-4.540657	селище	0
-4.540657	втратило	0
-4.540657	Податковий	0
-4.359158	борг	0
-4.540657	сума,	0
-4.213555	заборонити	0
-3.9550755	виїзд	-0.11393884
-3.8671997	кордон	-0.027337382
-4.540657	автоматичну	0
-4.359158	відстрочку	0
-4.540657	звільнених	0
-4.213555	полону	0
-3.8671997	повний	-0.09381565
-4.213555	алгоритм	-0.26883242
-4.213555	дій	0
-4.540657	Мукачівщині	0
-4.540657	полеглим	0
-4.0653625	воїном	0
-4.540657	Іваном	0
-4.540657	Плоскіною	0
-4.0653625	Життя	-0.08091911
-4.213555	Україну:	-0.01245711
-4.359158	щиті	-0.08091911
-4.540657	рідної	0
-4.540657	Вербки	0
-4.0653625	повернувся	0
-3.545166	Стало	-0.611506
-4.359158	відомо,	-0.01245711
-4.540657	Силах	0
-4.540657	забезпечують	0
-4.0653625	рівні	0
-3.8671997	права	0
-3.8671997	жінок	-0.052237842
-4.359158	Центри	0
-4.540657	рекрутингу	0
-4.540657	звільнять	0
-4.540657	функцій	0
-4.540657	обліку,	0
-4.359158	Міноборони	0
-4.540657	Стокгольмі	0
-4.213555	відкрилася	-0.11162927
-3.9550755	виставка	0
-4.540657	«Часів	0
-4.540657	Яр.	0
-4.540657	Вогнетривкі»	0
-4.540657	Буковинців	0
-4.540657	достойно	0
-4.540657	попрощатися	0
-3.731632	військовим	-0.004940034
-4.540657	Русланом	0
-4.540657	Качуляком	0
-4.540657	Дивився	0
-3.6284673	відео	-0.003287113
-4.0653625	свого	0
-4.540657	похорону:	0
-4.540657	боєць	0
-3.6284673	відвідав	-0.025333999
-4.359158	власну	0
-4.359158	могилу	0
-4.213555	Угорщині	0
-4.540657	Театр	0
-4.540657	національності	0
-4.540657	оперу	0
-4.0653625	«У	0
-4.359158	неділю	0
-4.540657	рано»	0
-4.540657	інвестувала	-0.052127473
-3.5088294	тис.	-0.12019035
-3.7941475	євро	-0.09091647
-4.540657	стенди	0
-4.540657	профтехів	0
-3.9550755	Львова	0
-4.540657	шведському	0
-4.0653625	місті	0
-3.5848224	відбувся	-0.027712079
-4.540657	благодійний	0
-4.359158	концерт	0
-4.359158	Чорткова	0
-4.540657	Боявся	0
-4.359158	воювати	0
-4.359158	сином:	0
-4.540657	обрав	0
-4.0653625	шлях	0
-4.540657	Володимирі	0
-4.540657	Гудиком	0
-4.540657	Юридичний	0
-4.213555	блекаут:	0
-3.8671997	Верховний	-0.31047598
-3.198471	Суд	-0.22406124
-4.540657	криміналізував	0
-3.5848224	постачання	-0.057313703
-3.731632	шкіл	0
-4.359158	лікарень	0
-4.540657	земну	0
-3.6284673	загиблого	-0.027712079
-4.359158	52-річного	0
-4.359158	Андрія	-0.18044904
-4.540657	Гудика	0
-4.540657	Житло	0
-4.0653625	уряд	0
-4.0653625	фінансування	-0.01245711
-4.213555	7,7	-0.26883242
-3.731632	грн	-0.04693608
-4.540657	Тульчинська	0
-3.2727032	громада	-0.04082023
-4.540657	путь	0
-3.8671997	Олександра	0
-4.540657	Марусяка	0
-4.0653625	Скандал	-0.08091911
-4.540657	спортивному	0
-4.540657	ВНЗ:	0
-4.359158	кандидат	-0.18044904
-4.359158	посаду	0
-4.540657	ректора	0
-4.540657	клініку	0
-3.9550755	університеті	0
-4.540657	власного	0
-4.540657	збагачення	0
-4.213555	Велика	-0.11162927
-4.540657	онлайн-бібліотека	0
-4.540657	українськомовної	0
-4.540657	літератури	0
-4.540657	«Чтиво»	0
-4.540657	припинила	0
-3.9550755	Загинув	-0.06348409
-4.0653625	півтора	-0.08091911
-4.540657	тому:	0
-4.540657	прощаються	0
-4.540657	Олегом	0
-4.540657	Кравченком	0
-3.9550755	просто	0
-4.540657	карати	0
-4.540657	підряд	0
-4.540657	думати,	0
-4.540657	вирішить	0
-4.540657	питання:	0
-4.213555	депутатка	0
-3.9550755	СЗЧ	0
-4.540657	“Більшість	0
-4.540657	таке	0
-4.540657	Херсон”.	0
-4.540657	іноземні	0
-4.540657	журналісти	0
-4.359158	показують	0
-4.540657	світові	0
-4.540657	прифронтового	0
-4.540657	Шептицькій	0
-2.9662328	громаді	-0.0867661
-4.359158	оголошено	0
-4.540657	жалоби	0
-4.213555	Яким	0
-4.359158	літо	-0.18044904
-4.213555	Україні:	-0.038577624
-4.540657	Укргідрометцентру	0
-4.213555	Київський	-0.11162927
-4.213555	апеляційний	-0.26883242
-3.8671997	підтвердив	-0.08838047
-4.540657	законність	-0.025282111
-4.359158	діяльності	0
-4.540657	Національного	0
-4.540657	меморіального	0
-4.540657	кладовища	0
-4.540657	Святослав	0
-4.540657	Вакарчук	0
-4.359158	зворушливо	-0.18044904
-4.213555	Ліну	0
-4.0653625	показав	0
-4.540657	рідкісне	0
-4.540657	поетесою	0
-4.540657	Втекли	0
-4.359158	примусу	0
-4.540657	пропаганди:	0
-3.731632	13	-0.038577624
-4.213555	повернулися	0
-4.0653625	додому	0
-3.731632	окупації	-0.030583069
-4.540657	ГО	0
-4.540657	«Моє	0
-4.540657	місто»	0
-4.540657	онлайн-курс	0
-4.540657	краудфандингу	0
-3.7941475	громад	0
-4.540657	завершили	0
-4.359158	цикл	0
-4.540657	круглих	0
-4.540657	столів	0
-4.540657	Русь	0
-4.540657	музеях	0
-4.540657	Дві	0
-4.540657	солдатом,	0
-4.540657	Відмовилась	0
-4.540657	конфліктувала	0
-4.540657	Забужко:	0
-4.540657	маловідомі	0
-4.359158	факти	-0.18044904
-4.540657	Костенко,	0
-4.540657	котра	0
-4.359158	відзначає	0
-4.540657	96-й	0
-4.540657	Скасує	0
-4.540657	відстрочку?	0
-4.540657	анулюють	0
-4.359158	догляд	-0.18044904
-4.540657	батьками	0
-4.540657	одруження	0
-4.359158	Погода	0
-4.540657	квітень	0
-4.359158	весна	0
-4.540657	грає	0
-4.540657	контрастах	0
-4.540657	Болградській	0
-4.540657	офіцером	0
-4.540657	морської	0
-4.359158	піхоти	0
-4.540657	Виноградовим	0
-4.540657	Олександром	0
-4.540657	Марія	0
-4.540657	Рева	0
-4.540657	фіналістів	0
-4.540657	твори	0
-4.540657	кліматичну	0
-4.0653625	кризу	-0.08091911
-4.540657	Смартфони	0
-4.540657	погіршують	0
-4.540657	інтерес	0
-4.213555	школярів	0
-4.540657	Блокбастер	0
-4.540657	дербі.	0
-4.540657	Рома	0
-4.540657	овертаймі	0
-4.359158	поступилася	0
-4.540657	Болоньї	0
-4.359158	Лізі	-0.01669016
-3.9550755	Ми	0
-4.540657	подарували	0
-3.7941475	перший	-0.038577624
-4.540657	гол.	0
-4.540657	Різник	0
-4.359158	вихід	0
-3.7941475	Шахтаря	0
-4.213555	1/4	-0.26883242
-4.359158	фіналу	-0.11162927
-3.7941475	Ліги	-0.21999095
-4.540657	Конференцій	0
-3.8671997	«Шахтар»	0
-3.8671997	завдав	-0.1921694
-4.540657	воротах,	0
-3.9550755	яких	0
-3.415131	1	-0.112589225
-4.540657	площину,	0
-4.359158	«Леха»	0
-3.4752998	15	-0.05999888
-4.359158	ударів,	0
-4.540657	площину	0
-4.540657	Посунув	0
-4.540657	Вінісіуса	0
-4.540657	Куртуа:	0
-4.540657	найкращим	0
-4.540657	Реалі	0
-4.213555	лютому	0
-4.540657	Ельзаський	0
-4.540657	порятунок:	0
-4.540657	Страсбур	0
-4.359158	крокує	-0.18044904
-4.540657	чвертьфіналу	-0.0099369325
-4.359158	конференцій	0
-4.540657	«Чим	0
-4.540657	більша,	0
-4.540657	тим	0
-4.540657	краще»:	0
-4.540657	Комісія	0
-4.213555	мистецтв	0
-4.540657	схвалила	0
-4.540657	золотої	0
-4.540657	монети	0
-4.540657	Трампом	0
-4.359158	Усик	0
-4.540657	боксерську	0
-4.540657	організацію,	0
-4.540657	відмовившись	0
-4.540657	титулу	0
-4.359158	Завдяки	0
-4.540657	курйозному	0
-4.540657	автоголу	0
-4.540657	голу	0
-4.540657	донецький	0
-4.540657	таки	0
-4.213555	проходить	0
-4.359158	польський	0
-4.540657	«Лех»	0
-4.540657	Жереб	0
-4.540657	кинуто:	0
-4.540657	зійдеться	0
-4.359158	АЗ	0
-4.540657	чвертьфіналі	-0.052127473
-3.731632	Шахтар	-0.15370676
-4.213555	1:2	0
-4.0653625	Лех	-0.0099369325
-4.540657	Познань.	0
-4.0653625	Ліга	-0.08091911
-4.540657	Конференцій.	0
-3.415131	Відео	-0.0028990984
-4.0653625	Костюк	0
-4.213555	зустрінеться	-0.26883242
-4.540657	ексросіянкою	0
-4.359158	другому	0
-4.359158	колі	0
-4.213555	турніру	0
-4.359158	Маямі	0
-4.540657	«Леху»	0
-4.540657	достатньо	0
-3.9550755	було	0
-4.540657	річ,	0
-4.540657	виглядав	0
-4.540657	безпорадним	0
-4.540657	«10	0
-4.540657	обоср#нців	0
-4.540657	Різник»:	0
-4.540657	коментарях	0
-4.540657	Tribuna.com	0
-4.213555	палає	0
-4.540657	гру	0
-4.359158	«Шахтаря»	0
-4.540657	«Порту»	0
-4.540657	«Ноттінгем	0
-4.540657	Форест»,	0
-4.540657	«Болонья»	0
-4.540657	«Астон	0
-4.540657	Вілла».	0
-4.359158	Всі	-0.18044904
-3.9550755	пари	-0.052237842
-4.540657	Пройшли	0
-4.540657	далі,	0
-4.540657	забивши.	0
-4.540657	(4:3	0
-4.540657	заг).	0
-4.213555	голів	0
-4.540657	огляд	0
-3.6284673	матчу	-0.058423854
-4.213555	Європи:	0
-4.0653625	Астон	-0.18044904
-4.540657	Вілла	0
-4.540657	прагматично	0
-4.540657	розправляється	0
-4.540657	Ліллем	0
-4.540657	шляху	-0.052127473
-4.540657	трофею	0
-4.359158	Тренер	0
-4.540657	Леха:	0
-4.540657	програли	0
-4.213555	протистояння	-0.11162927
-4.359158	тут,	0
-4.540657	Познані	0
-4.540657	Ультрас	0
-4.359158	Леха	0
-4.359158	скандували	0
-4.540657	лайливі	0
-4.540657	гасла	0
-4.540657	Бандеру	0
-4.213555	Волинь	0
-3.8671997	матчі	-0.08091911
-4.540657	Валідольний	0
-4.540657	чвертьфінал:	0
-4.540657	поступився	0
-4.540657	«Леху»,	0
-3.1350944	але	-0.029931411
-4.540657	проповз	0
-4.540657	наступний	0
-4.359158	раунд	0
-4.540657	Рятівний	0
-4.540657	автогол	0
-4.540657	відеоогляді	0
-4.540657	влучили	-0.025282111
-3.731632	дроном	-0.08838047
-3.5848224	одного	-0.17866628
-4.359158	навчальних	-0.18044904
-3.8671997	закладів	-0.04437948
-3.9550755	Харкова	-0.04534048
-4.540657	Puмська	0
-4.540657	драма:	0
-4.359158	Болонья	0
-4.540657	надзвичайно	0
-4.540657	результативного	0
-3.731632	Без	0
-4.540657	українців.	0
-4.213555	Стали	-0.26883242
-4.540657	команди,	0
-3.8671997	вийшли	-0.11162927
-4.540657	Матч	0
-4.540657	відвідуваною	0
-4.540657	домашньою	0
-4.359158	грою	0
-4.540657	єврокубках	0
-3.6284673	цього	-0.118305415
-3.9550755	сезону	0
-4.540657	Визначилися	0
-4.540657	чвертьфіналісти	0
-4.359158	Колишня	0
-4.540657	Цимбалюка	0
-4.540657	влаштувала	0
-4.359158	гарячу	0
-4.540657	зйомку	0
-4.540657	білизні	0
-3.215874	отримав	-0.035931703
-4.213555	суперника	0
-4.359158	Контроль	0
-4.540657	інтрига	0
-4.540657	матчах	0
-4.359158	Порту	0
-4.359158	обіграв	0
-4.540657	Штутгарт,	0
-4.540657	Ромою	0
-4.359158	тримали	0
-4.540657	інтригу	0
-4.540657	останньої	0
-3.9550755	хвилини	0
-4.540657	«Крістал	0
-4.540657	Пелес»	0
-4.540657	«Фіорентина»,	0
-4.540657	«Майнц»	0
-4.540657	«Страсбур».	0
-4.359158	конференцій.	0
-4.540657	валідолу	0
-4.540657	обійшлося.	0
-4.540657	скрипом	0
-3.731632	пройшов	0
-4.359158	ЛК.	0
-4.540657	Райо	0
-4.540657	Вальєкано	0
-4.540657	програв,	0
-4.213555	далі	0
-3.9550755	ЛЄ.	0
-4.213555	повторно	0
-4.540657	перемагає	0
-4.540657	німців	0
-4.540657	Едріан	0
-4.540657	Ньюї	0
-4.540657	визначився	0
-4.359158	кандидатом	0
-3.9550755	керівника	-0.06348409
-4.540657	Мартін	0
-4.540657	ШУМАХЕР:	0
-4.213555	цьому	0
-4.359158	велика	0
-4.540657	різниця	0
-3.3381045	між	-0.117604226
-4.540657	Ферстаппеном	0
-4.540657	моїм	0
-4.540657	братом»	0
-3.9550755	нас	-0.0099369325
-4.540657	запеклі	0
-4.540657	протистояння.	0
-4.540657	Визначено	0
-4.540657	Ексзірка	0
-4.540657	сумо:	0
-4.540657	Аонішікі	0
-4.540657	немов	0
-4.540657	підмінили	0
-4.213555	клубу	0
-4.540657	УПЛ:	0
-4.540657	«Можна	0
-4.540657	ходити	0
-4.540657	церквах	0
-4.540657	кудись»	0
-4.540657	Бетіс	0
-4.359158	Панатінаїкос	0
-4.540657	матчі-відповіді	0
-4.540657	Рекорд	0
-4.540657	сезону.	0
-4.540657	Відомо,	0
-4.540657	фанатів	0
-4.359158	прийшла	0
-4.540657	1/8	-0.052127473
-4.359158	ЛЄ	0
-4.540657	воротар	0
-4.540657	відстояв	0
-4.540657	насухо	0
-3.9550755	серію	0
-4.0653625	пенальті	0
-4.213555	жодного	-0.01669016
-4.540657	сейву	0
-4.213555	суперник	0
-4.540657	двічі	0
-3.8671997	влучив	-0.15969414
-4.540657	стійку	0
-4.540657	комічно	0
-4.540657	промахнувся	0
-4.359158	Перші	0
-4.540657	пішли.	0
-4.540657	Збірники	0
-3.8671997	лідерів	0
-3.8671997	УПЛ	-0.030583069
-4.540657	вирушили	0
-4.540657	розташування	0
-4.540657	національної	0
-4.540657	команди.	0
-3.9550755	вдруге	-0.11393884
-3.8671997	поспіль	0
-4.359158	перемогла	0
-4.540657	Лілль	0
-4.359158	фігуру	0
-4.540657	Ауді	0
-4.540657	гучний	0
-4.0653625	конфлікт	0
-4.540657	Результат	0
-3.9550755	ФОТО.	0
-4.359158	Роналду	0
-4.540657	рідкісні	0
-3.8671997	кадри	-0.052237842
-4.540657	батьком	0
-4.540657	видав	0
-4.540657	сильний	0
-4.540657	меседж	0
-4.540657	АЕК	0
-4.540657	програє	0
-3.9550755	вдома	-0.0099369325
-4.540657	Цельє,	0
-4.540657	Декласування	0
-4.540657	по-нідерландськи	0
-4.540657	Спарта	0
-4.540657	ганебно	0
-4.540657	Алкмару	0
-4.540657	Празі	0
-4.0653625	Харлан	0
-4.540657	зірковим	0
-4.540657	нареченим	0
-4.540657	первістка	0
-3.0545862	(ФОТО)	-0.12806615
-4.540657	Дієго	0
-4.540657	Сімеоне	0
-4.213555	прокоментував	0
-4.540657	прийдешнє	0
-4.540657	«Барселоною»	0
-4.359158	чемпіонів	0
-4.540657	Ексворотар	0
-3.4752998	Динамо	-0.018860605
-3.9550755	збірної	-0.11393884
-4.0653625	взяв	0
-3.731632	участь	-0.69480115
-4.540657	договірному	0
-4.359158	лідером	0
-3.9550755	вийшов	-0.06348409
-4.0653625	фінал	-0.08091911
-4.540657	Греції	0
-4.540657	хочемо	0
-4.540657	одружитися":	0
-4.540657	кохана	0
-4.359158	зірки	0
-4.540657	Аргентини	0
-4.213555	підтвердила	0
-3.8671997	плани	-0.052237842
-4.540657	весілля	0
-4.540657	клуб	0
-4.540657	тренувати	0
-4.540657	Луїс	0
-4.540657	Енріке	0
-4.540657	Тріумфальне	0
-4.540657	повернення.	0
-4.540657	Стародубцева	0
-4.540657	перериває	0
-4.540657	поразок	0
-4.540657	розгромом	0
-4.213555	World	0
-4.540657	Boxing	0
-4.540657	прийняла	0
-4.359158	Росію	0
-4.359158	Білорусь	0
-4.540657	складу:	0
-4.540657	новачка	0
-4.540657	Ередивізі	0
-4.540657	тролив	0
-4.540657	журналіста	0
-4.540657	пивом	0
-4.540657	сигарою	0
-4.540657	руці	0
-3.5848224	час	-0.03447389
-4.540657	флеш-інтерв'ю	0
-4.540657	Автогол	0
-4.359158	допоміг	0
-4.540657	Шахтарю	0
-4.540657	повернутися	0
-4.0653625	боротьбу	0
-4.359158	(+ВІДЕО)	0
-3.8671997	дуже	0
-4.540657	потрібний	0
-4.540657	момент.	0
-4.540657	забиває,	0
-4.213555	ворота	0
-4.359158	віддали	0
-4.540657	полі".	0
-4.359158	Фонсека	0
-3.7941475	відреагував	-0.28693777
-4.540657	сенсаційний	0
-4.540657	виліт	0
-4.540657	Ліона	0
-4.359158	Знову	0
-4.540657	Еліас:	0
-4.359158	привіз	0
-3.8671997	другий	0
-4.540657	цій	0
-4.359158	ЛК	0
-4.540657	дивною	0
-4.540657	руками	0
-4.540657	відзначилися	0
-4.540657	мерзенним	0
-4.540657	вчинком	0
-4.540657	"Шахтаря"	0
-4.359158	Батько	0
-4.540657	Ф'юрі:	0
-4.540657	Бої	0
-4.540657	Вайлдером	0
-4.540657	добили	0
-4.359158	Тайсона	0
-4.540657	Журналіст:	0
-4.540657	Очолити	0
-4.540657	Aston	0
-4.540657	Martin	0
-4.213555	колишній	0
-4.540657	шеф	0
-4.540657	McLaren	0
-4.359158	17-річний	0
-4.540657	тенісист	0
-4.359158	створив	0
-4.359158	гучну	0
-4.540657	сенсацію	0
-4.540657	Маямі:	0
-4.540657	кар'єрі	0
-4.540657	переміг,	0
-4.540657	повторивши	0
-4.540657	подвиг	0
-4.540657	Надаля	0
-4.0653625	Металіст	-0.39377114
-4.359158	1925	-0.01669016
-4.540657	впевнено	0
-3.9550755	СК	-0.28142646
-4.213555	Полтава	-0.04437948
-4.540657	Лу	0
-4.540657	Жанмонно	0
-3.731632	стала	-0.038577624
-4.540657	володаркою	0
-4.540657	Великого	0
-4.540657	кришталевого	0
-4.540657	глобуса	0
-4.540657	забути	0
-4.540657	звання	0
-4.540657	MVP.	0
-4.540657	Розігруючий	0
-4.540657	Детройта	0
-4.540657	вибув	0
-4.359158	тривалий	-0.18044904
-4.540657	Сумоїст	0
-4.540657	Аонішікі:	0
-4.540657	Моє	0
-4.0653625	тіло	0
-4.540657	рухається	0
-4.213555	хочу	0
-4.540657	Вільярреал	0
-4.540657	Реал	0
-4.540657	Сосьєдад.	0
-3.731632	Де	0
-4.213555	дивитися	0
-4.213555	онлайн	-0.11162927
-4.540657	LIVE	-0.052127473
-4.540657	пряму	-0.052127473
-4.540657	відеотрансляцію	-0.052127473
-3.9550755	чемпіонату	0
-3.5848224	Іспанії	-0.01672411
-4.540657	Топ-клуби	0
-4.540657	націлилися	0
-4.359158	талановитого	0
-4.540657	Айнтрахта	0
-4.540657	Ф1	0
-4.359158	масштаб	0
-4.213555	пошкоджень	0
-4.540657	першій	0
-4.540657	результативній	0
-4.540657	гонці	0
-4.540657	ФІФА	0
-4.540657	відхилила	0
-4.359158	вимогу	0
-4.540657	Палестини	0
-4.540657	відсторонити	0
-4.540657	ізраїльські	0
-4.540657	клуби,	0
-4.540657	наклала	0
-4.0653625	штраф	0
-4.359158	ізраїльській	0
-4.540657	ФА	0
-4.540657	дискримінацію	0
-4.540657	Майбутнє	0
-4.540657	Гвардіоли	0
-4.540657	питанням:	0
-4.213555	тренер	0
-4.540657	важливе	0
-3.3622932	рішення	-0.13690148
-4.359158	Легенда	0
-4.359158	підписав	0
-4.213555	контракт	0
-4.540657	клубом	0
-4.540657	АПЛ.	0
-4.540657	Сталося	0
-4.540657	непередбачуване	0
-4.540657	Гераскевич	0
-4.359158	заговорив	-0.18044904
-4.540657	олімпійське	0
-4.540657	"золото":	0
-4.540657	"Бажано	0
-4.540657	шоломі"	0
-4.540657	Лех:	0
-4.540657	польські	0
-4.540657	фанати	0
-4.540657	антиукраїнські	0
-4.540657	кричалки	0
-4.359158	"Він	0
-4.540657	закрив	0
-4.540657	мені	0
-4.540657	обидва	0
-4.540657	ока".	0
-4.540657	Майбутній	0
-4.540657	Усика	0
-4.0653625	згадав	-0.18451644
-4.540657	спаринг	0
-4.540657	Тайсоном	0
-4.359158	Ф'юрі	0
-4.540657	Новачок	0
-4.359158	розкрив,	0
-4.359158	проміняв	0
-3.9550755	Європу	0
-4.359158	киян	0
-4.540657	мріє	0
-3.8671997	чемпіонат	-0.11162927
-4.213555	суддя	0
-4.359158	призначив	0
-4.540657	45+7	0
-4.359158	Лехом	0
-4.540657	Мудрика	0
-4.359158	запідозрили	-0.18044904
-4.359158	новому	0
-4.540657	романі:	0
-4.540657	блогерка	0
-4.540657	показалась	0
-4.540657	футболці	0
-4.540657	"Челсі"	0
-4.540657	Французький	0
-4.540657	капкан	0
-4.540657	Жеваго:	0
-4.213555	екснардепу	-0.08091911
-3.6769936	вручили	-0.034118067
-4.540657	Парижі	0
-3.545166	Лідери	-0.41496885
-2.9189382	ЄС	-0.117150165
-4.359158	відмовилися	0
-4.213555	участі	-0.08091911
-4.359158	кластерів	0
-4.0653625	ЄС:	0
-4.359158	кроки	0
-2.8762918	Трамп	-0.14112322
-4.540657	кинути	0
-3.9550755	Україну,	-0.052237842
-4.359158	покарати	0
-3.8671997	свою	0
-4.540657	Сході,	0
-4.540657	Economist	0
-4.359158	Науседа:	0
-4.359158	включити	0
-4.540657	"росатом"	0
-4.540657	"лукойл"	0
-4.540657	санкційний	0
-3.9550755	пакет	-0.0750061
-4.213555	Мелоні	0
-4.540657	спростувала	0
-3.7941475	заяви	-0.15177095
-3.3381045	Орбана	-0.071662
-3.252922	Орбан	-0.11134247
-3.8671997	відмовився	-0.28693777
-3.6769936	розблокувати	-0.20545162
-3.4441743	кредит	-0.2984378
-4.0653625	Це	0
-4.540657	абсурдно,	0
-3.5848224	МЗС	-0.07585375
-4.213555	поведінку	-0.11162927
-3.9550755	Угорщини	0
-3.8671997	"Дружби"	0
-4.359158	ЄНП	0
-4.540657	визнала	0
-3.7941475	оборону	-0.034118067
-4.540657	життєво	0
-4.540657	важливою	0
-4.359158	свободи	0
-3.6769936	безпеки	-0.07114672
-4.213555	заява	-0.0099369325
-4.540657	підсумками	0
-4.213555	саміту	0
-4.540657	Сіярто	0
-3.7941475	звинуватив	-0.15177095
-4.540657	атаці	-0.052127473
-4.359158	"Турецький	-0.18044904
-4.540657	потік"	-0.025282111
-3.7941475	енергетичну	-0.12783907
-4.359158	блокаду	0
-2.8228517	Зеленський	-0.22755419
-4.359158	сказав,	0
-4.0653625	чого	-0.06348409
-4.0653625	Затоки	0
-3.8671997	с	0
-4.540657	"Шахедами"	0
-4.359158	відмовитися	-0.18044904
-3.2727032	допомоги	-0.30667287
-3.7941475	Україні,	-0.03588579
-4.540657	“покарати”	0
-4.359158	поразки	0
-4.540657	Ірані,	-0.01669016
-4.540657	Проблема	0
-4.540657	безпеці:	0
-4.540657	Хорватія	0
-4.540657	звинуватила	0
-4.540657	Угорщину	0
-4.540657	небажанні	0
-4.540657	дешевої	0
-3.8671997	посилює	0
-4.359158	гібридний	0
-3.6769936	США,	-0.062439337
-4.213555	ЦПД	0
-4.359158	Михайла	0
-4.540657	Лазаренка	0
-4.0653625	звільнили	0
-4.359158	посади	0
-3.7941475	голови	-0.052222107
-4.540657	Подільської	0
-4.540657	РДА,	0
-4.540657	Кіпер	0
-3.4752998	Угорщина	-0.17890355
-4.540657	продовжить	0
-4.0653625	блокувати	0
-4.540657	політизує	0
-3.6769936	ремонту	0
-4.540657	висуває	0
-4.540657	вимоги	0
-3.7941475	України,	-0.1589251
-4.540657	що,	0
-4.540657	нашу	0
-4.540657	думку,	0
-4.540657	абсурдно	0
-4.0653625	речник	-0.18451644
-4.540657	Хегсет	0
-4.540657	натякнув,	0
-4.540657	залишиться	0
-3.9550755	Переговори	-0.06348409
-4.540657	ризиками:	0
-4.213555	озвучив	0
-4.540657	виклики	0
-3.8671997	анонсував	-0.014992022
-4.359158	перемовин	0
-4.540657	Росією:	0
-4.359158	звернення	0
-4.0653625	Мирні	-0.39377114
-3.3622932	переговори	-0.20338514
-4.540657	призупинено:	0
-4.213555	посадовців	0
-3.7941475	дали	0
-4.359158	сигнал	0
-3.5088294	переговорів	-0.13177451
-4.540657	умова	0
-3.8671997	завершення	-0.21999095
-4.213555	формат	0
-4.540657	вступу:	0
-4.540657	обійти	0
-4.540657	пастки	0
-4.540657	забезпечити	0
-4.213555	членство	-0.18451644
-4.540657	домовились	0
-4.540657	Орбаном	0
-3.4441743	90	-0.41419762
-4.213555	Politico	0
-4.540657	Війни	0
-4.213555	світ	0
-4.540657	пристосовується	0
-4.540657	ведення	0
-4.540657	боїв	0
-3.6769936	БПЛА	0
-4.540657	Лаврова	0
-4.540657	вибухнули	0
-4.540657	гнівом	0
-4.540657	Зеленського:	0
-4.540657	розлютило	0
-4.540657	Захарову	0
-4.540657	гра":	0
-4.540657	Брюсселі	-0.01669016
-3.7941475	закликав	-0.062439337
-3.9550755	припинити	-0.06348409
-4.540657	нафтову	0
-3.731632	Мерц	-0.15370676
-3.731632	€90	-0.41496348
-4.359158	дозволити	0
-4.540657	зірвати	0
-4.213555	звернувся	-0.26883242
-4.213555	учасників	0
-3.7941475	засідання	0
-4.213555	Європейської	-0.11162927
-4.359158	ради:	0
-4.540657	"Сподіваємося,	0
-4.359158	Європа	0
-4.540657	знайде	0
-4.359158	складної	0
-4.540657	ситуації"	0
-4.359158	підтримає	-0.01669016
-4.359158	поставок	0
-4.213555	"Дружбу"	-0.09597227
-3.234003	рф	-0.033502888
-4.540657	зупинені	0
-4.540657	Розблокування	0
-4.0653625	України:	-0.0070745302
-4.540657	першої	0
-4.540657	дискусії	0
-4.359158	Єврораді	0
-4.359158	позиція	0
-4.540657	змінилась	0
-4.359158	джерело	0
-4.359158	ухвалення	-0.18044904
-4.540657	20-го	0
-4.359158	пакету	0
-3.545166	санкцій	-0.10011073
-3.8671997	країни	0
-4.540657	«зрадив»	0
-3.7941475	блокування	-0.038577624
-4.540657	Орпо	0
-4.0653625	Кредит	0
-3.9550755	лідери	-0.06348409
-3.9550755	першого	-0.06348409
-4.0653625	траншу	0
-4.540657	Розмова	0
-3.731632	Нетаньягу	0
-4.540657	зірватися	0
-4.540657	повідомлення	0
-4.540657	сподіваються	0
-4.540657	виплату	0
-4.359158	EUR90	-0.18044904
-3.731632	початку	-0.13517222
-3.8671997	квітня	0
-4.540657	готовий	0
-4.0653625	внесок	0
-4.540657	гарантії	0
-4.540657	продовжуватиме	0
-4.540657	всебічно	0
-4.213555	підтримувати	-0.11162927
-4.540657	супротиві	0
-4.359158	російській	0
-4.213555	агресії	0
-3.731632	25	-0.006183892
-3.6284673	Київ	0
-4.359158	значні	-0.11162927
-4.359158	"Дружби",	0
-4.359158	Будапешт	0
-4.540657	вірить:	0
-4.540657	супутникові	0
-4.359158	знімки	0
-4.540657	обговорюють	0
-4.540657	учасники	0
-3.8671997	Сибіга	-0.052237842
-4.540657	страту	0
-4.359158	громадянина	0
-4.540657	зірве	0
-4.359158	криза	0
-4.540657	Верховній	0
-4.0653625	Раді	0
-4.540657	МВФ:	0
-4.359158	парламенті	0
-3.8671997	зробили	-0.11393884
-3.6769936	заяву	-0.258623
-4.540657	Макрон:	0
-4.359158	Рішення	0
-3.8671997	бути	0
-4.540657	виконане	0
-4.540657	Науседа	0
-4.540657	миру	0
-3.7941475	боїться	-0.10611557
-4.540657	"зміщення	0
-4.540657	фокусу"	0
-4.540657	Прем’єр-міністр	0
-4.0653625	Фінляндії	0
-4.540657	"зрадив"	0
-4.0653625	зброю	0
-4.359158	виборів	0
-4.540657	рекрутувати	0
-4.540657	409	0
-3.9550755	Прем’єр	-0.0099369325
-4.540657	Бельгії,	0
-4.540657	«нормалізувати»	0
-4.540657	відносини	0
-4.540657	росією,	0
-4.540657	запевняє	0
-4.540657	підтримці	0
-3.9550755	«на	-0.06348409
-4.540657	100%»	0
-4.540657	Чорногорія	0
-3.731632	підписали	-0.027337382
-4.359158	меморандум	-0.18044904
-4.213555	європейської	0
-4.213555	інтеграції	0
-4.359158	названа	0
-4.540657	«частково	0
-4.540657	вільною»	0
-4.540657	звіті	0
-4.540657	Freedom	0
-4.540657	House	0
-3.731632	стан	0
-4.540657	прем'єрка	0
-4.540657	Латвії	0
-4.540657	НАЗК	0
-4.540657	розпочало	0
-4.540657	повну	0
-4.0653625	перевірку	0
-4.540657	декларації	0
-4.540657	Галущенка	0
-4.359158	Кличко	0
-4.540657	саміті	-0.01669016
-4.359158	купувати	0
-4.540657	переглянути	0
-4.359158	порядок	0
-4.359158	доступу	-0.18044904
-4.540657	реєстру	0
-4.359158	судових	0
-3.8671997	рішень	-0.052237842
-4.359158	Прем'єр	0
-4.359158	пакета	0
-4.540657	Мецола:	0
-4.540657	реалізований	0
-3.6769936	Зеленський:	-0.027712079
-4.540657	запускати	0
-3.215874	тисячі	-0.058902908
-4.540657	Питання	0
-4.540657	блокуванням	0
-4.540657	вирішене	0
-3.9550755	найближчим	-0.49068117
-4.540657	часом	0
-4.213555	прем’єр	0
-4.540657	Люксембургу	0
-4.213555	Тристоронні	-0.11162927
-4.0653625	мирні	-0.23129474
-4.213555	перемовини	0
-4.540657	паузі»,	0
-4.359158	обміни	-0.18044904
-4.540657	полоненими	0
-4.213555	продовжаться	-0.01669016
-4.0653625	Пєсков	-0.04437948
-4.540657	Нідерландів:	0
-4.540657	критично	0
-4.540657	важливим	0
-4.213555	підготовки	0
-4.540657	наступної	0
-4.213555	зими	0
-4.359158	Естонії	0
-4.540657	пожиттєво	0
-4.0653625	в’їзд	-0.12471407
-4.540657	росіянам,	0
-4.540657	воювали	-0.052127473
-4.540657	висловив	0
-4.540657	очікування	0
-4.213555	Орбана,	0
-4.540657	блокує	0
-4.540657	"Спіраль	0
-4.540657	ескалації"	0
-3.8671997	реакція	-0.052237842
-4.540657	електорату:	0
-4.540657	Чехії	0
-4.540657	європейці	0
-4.540657	зволікали	0
-4.359158	зброєю	0
-4.540657	"Починають	0
-4.540657	божеволіти".	0
-3.7941475	Приходько	-0.04437948
-4.540657	чесно	0
-4.540657	Монатіка,	0
-4.540657	Вакарчука	0
-4.213555	український	0
-4.540657	шоу-бізнес	0
-3.6284673	Мережі	-0.052237842
-4.540657	підкорив	0
-4.540657	«собачий	0
-4.540657	вальс»	0
-4.540657	далматинця	0
-3.415131	3	-0.039308302
-4.540657	культові	0
-4.540657	екранізації	0
-4.540657	творів	0
-4.540657	Стівена	0
-4.540657	Кінга	0
-4.540657	"Короля	0
-4.540657	жахів",	0
-4.540657	підтримує	0
-4.540657	рідна	0
-4.540657	сестра	0
-4.359158	Софії	0
-4.540657	Ротару	0
-4.540657	Ауріка	0
-4.359158	2:0.	0
-4.540657	Перший	0
-4.359158	гол	0
-4.540657	Баптістелли.	0
-4.540657	Відеоогляд	0
-4.540657	Комунальники	0
-3.5088294	розповіли,	-0.32281914
-4.213555	Івано-Франківську	-0.005492408
-4.359158	завершиться	-0.18044904
-3.9550755	опалювальний	-0.28142646
-4.540657	з'являться	-0.052127473
-4.540657	автобусні	-0.052127473
-4.359158	маршрути	0
-4.540657	безперервної	0
-4.540657	логістики	0
-4.359158	Кулеба	0
-3.9550755	незаконний	0
-4.359158	видобуток	0
-4.540657	піску:	0
-3.9550755	відкрито	-0.06348409
-4.359158	кримінальне	-0.18044904
-3.9550755	провадження	-0.08253173
-4.540657	Дебютний	0
-4.540657	легка	0
-4.540657	перемога.	0
-4.359158	Огляд	0
-3.9550755	кого	0
-4.540657	народить	0
-4.540657	миколаївська	0
-4.540657	шаблістка	0
-4.213555	Ольга	0
-4.540657	Пейзажі,	0
-4.540657	котики	0
-4.540657	трохи	0
-3.9550755	нова	0
-4.540657	Павлограді	0
-4.359158	Підступний	0
-4.540657	вогонь:	0
-3.9550755	патрульні	-0.06348409
-3.6284673	зупинили	-0.027712079
-4.0653625	пожежу	-0.06348409
-4.540657	Історія	0
-4.0653625	собаки	-0.01245711
-4.540657	«Джин»,	0
-4.540657	асистентом	0
-4.540657	психолога	0
-4.540657	82-ї	0
-4.540657	ОДШБр	0
-4.540657	київський	0
-4.540657	діалект,	0
-4.540657	здивувала	0
-4.213555	заявою	-0.11162927
-4.213555	те,	0
-3.9550755	досі	0
-4.540657	спілкується	0
-4.540657	Буковель	0
-4.359158	засипало	0
-4.359158	снігом	0
-4.540657	Disney	0
-4.540657	анонсувала	0
-4.540657	"Суперсімейку	0
-4.540657	3"	0
-4.540657	"Ліло	0
-4.540657	Стіч	0
-4.540657	2":	0
-4.359158	прем'єри	0
-4.359158	заплановані	0
-4.540657	2028	0
-4.540657	Режисер	0
-4.540657	Resident	0
-4.540657	Evil	0
-4.540657	Requiem	0
-4.540657	популярну	0
-4.540657	Леона	0
-4.540657	Кеннеді	0
-4.359158	Останній	0
-4.540657	Героя:	0
-4.540657	Корці	0
-4.540657	виник	0
-4.213555	скандал	0
-4.540657	довкола	0
-4.359158	організації	0
-4.540657	поховання	0
-4.359158	Магучіх	0
-4.540657	спробує	0
-4.359158	реванш	0
-4.540657	Оліслагерс,	0
-4.540657	Дюплантіс	0
-4.540657	мітить	0
-4.0653625	черговий	0
-4.359158	рекорд:	0
-4.0653625	чекати	0
-4.540657	насмішила	0
-4.0653625	десерт	0
-4.540657	Корпус	0
-4.540657	музичної	0
-3.6769936	школи	0
-4.213555	Рівному	0
-4.359158	відремонтувати	0
-4.0653625	селі	-0.0044886013
-4.540657	Недобоївці	0
-4.359158	облаштовують	0
-4.213555	зону	0
-4.359158	відпочинку	0
-4.359158	історичного	0
-4.359158	млина	0
-4.540657	М'яка,	0
-4.540657	повітряна,	0
-4.540657	ароматна:	0
-3.415131	рецепт	0
-4.0653625	паски	0
-4.540657	«Бріош»	0
-4.540657	родзинками,	0
-4.540657	черствіє	0
-3.6769936	кілька	-0.030583069
-4.0653625	днів	0
-4.540657	Кампанія	0
-4.540657	декларування	0
-3.545166	боєприпасів	-0.04522587
-4.213555	триває:	0
-4.540657	В'язниця	0
-4.540657	крісла	0
-4.540657	Раді:	0
-4.359158	нардепка	0
-3.9550755	Марченко,	-0.49068117
-4.540657	викинула	-0.052127473
-3.8671997	хабар	-0.06348409
-4.359158	паркан,	0
-4.540657	почула	0
-3.6284673	вирок	-0.07342426
-4.540657	Космічна	0
-4.540657	одіссея	0
-4.540657	Раяна	0
-4.540657	Гослінга	0
-4.540657	крутезних	0
-3.9550755	кіно	-0.04437948
-3.415131	12	-0.0737113
-4.540657	Пекін	0
-4.540657	пропаганду	0
-4.359158	Ірану,	0
-4.540657	намагаючись	0
-4.540657	послабити	0
-4.359158	«Мрію	-0.18044904
-4.540657	часи»:	0
-4.213555	Сумська	0
-4.213555	розкрила	0
-4.540657	реальні	0
-4.540657	суми	0
-3.8671997	своїх	0
-4.540657	гонорарів	0
-4.540657	театрі	0
-4.213555	міжнародному	0
-4.540657	анімаційному	0
-4.540657	форумі	0
-3.731632	презентували	0
-4.540657	мультфільм	0
-4.359158	«Наша	0
-4.540657	Файта»	0
-4.213555	третій	-0.11162927
-4.213555	фестиваль	-0.01669016
-4.540657	«Незламні	-0.052127473
-4.540657	&	-0.052127473
-4.540657	Автоледі»	-0.052127473
-4.540657	спільноти,	0
-4.540657	об’єднала	0
-4.359158	складні	0
-3.7941475	(Відео)	-0.04437948
-4.540657	"Брама	0
-4.540657	пекла"	0
-4.0653625	важко	0
-4.540657	загасити	0
-4.540657	блискучі	0
-4.540657	фільми,	0
-4.540657	зіграв	0
-4.540657	Брюс	0
-4.540657	Вілліс	0
-4.359158	того,	-0.11162927
-4.540657	захворів	0
-4.540657	«Через	0
-4.540657	витре	0
-4.0653625	об	0
-4.540657	тебе	0
-4.540657	ноги»:	0
-3.0307565	чоловік	-0.091916524
-4.359158	Олі	-0.18044904
-4.359158	Полякової	-0.01245711
-4.359158	публічно	0
-4.359158	сказав	0
-4.540657	всю	0
-4.359158	правду	-0.18044904
-4.540657	Кіркорова	0
-4.540657	Лепса	0
-4.540657	Пройшло	0
-4.540657	тижні:	0
-4.0653625	місці	-0.08091911
-4.540657	провалля	0
-4.540657	Пастера	0
-4.540657	Курив,	0
-4.540657	пив	0
-4.540657	хуліганив	0
-4.540657	флеш-інтерв'ю:	0
-4.540657	розрив	0
-4.540657	шаблону	0
-4.540657	Ден	0
-4.540657	Хаага	0
-4.540657	Ворожа	0
-4.540657	логістика	0
-4.540657	прицілом:	0
-4.359158	дронарі	0
-4.540657	45-ї	0
-3.545166	бригади	-0.027337382
-4.0653625	знищують	0
-4.540657	НРК	0
-3.8671997	транспорт	-0.052237842
-3.415131	ворога	-0.1111514
-3.731632	Два	-0.08253173
-4.540657	дрони-"ждуни"	0
-4.540657	вичікують	0
-4.540657	засідці	0
-4.540657	їх.	0
-4.0653625	ВIДЕО	0
-4.540657	Кудрівка	0
-4.540657	0:2	0
-4.540657	Полісся	0
-4.540657	.	0
-4.359158	УКРАЇНА.	-0.18044904
-4.540657	Ліга.	-0.052127473
-4.540657	Інженер-аматор	0
-4.540657	підняв	0
-4.0653625	безпілотник	0
-4.540657	сонячних	0
-4.540657	батареях	0
-4.213555	повітря	-0.08091911
-4.213555	Три	-0.08091911
-4.540657	двійнят	0
-4.359158	добу:	0
-4.540657	бебі-бум	0
-4.540657	Роботи	0
-4.540657	касирів:	0
-4.540657	Шанхаї	0
-4.213555	тестують	0
-4.540657	McDonald’s	0
-4.540657	відреставрували	0
-4.540657	втрачений	0
-4.213555	фільм	0
-4.540657	1897	0
-4.0653625	одним	-0.08091911
-4.540657	«роботів»	0
-4.540657	йшли,	0
-4.540657	м'ясо":	0
-4.540657	полонений	0
-4.540657	окупант	0
-4.540657	кинули	0
-3.7941475	штурм	-0.04437948
-4.540657	Костянтинівкою.	0
-4.540657	вагони,	0
-3.731632	тепловоз	-0.06348409
-4.540657	колії:	0
-4.0653625	оновлюють	-0.01245711
-4.540657	Дитячу	0
-3.9550755	залізницю	-0.06348409
-4.540657	Півдні	0
-4.540657	бердянські	0
-4.540657	піхоту,	0
-4.540657	квадроцикл	0
-4.540657	РЕБ	0
-4.540657	противника	0
-4.540657	зізналася,	0
-4.540657	спить	0
-3.8671997	години	-0.0070745302
-4.540657	засинати	0
-4.540657	Ягодині	0
-4.540657	«ожили»	0
-4.540657	автоботи:	0
-4.540657	волинські	0
-4.359158	митники	0
-4.540657	сканер	0
-4.540657	Дебютант	0
-3.9550755	Ігор	0
-4.359158	висловився	-0.18044904
-4.540657	хореографа,	0
-4.359158	мемом	0
-4.540657	Олімпіади-2026	0
-3.9550755	Ціни	-0.49068117
-4.213555	моркву	0
-4.540657	падають	0
-3.7941475	тиждень	0
-4.540657	EastFruit	0
-4.540657	Зінкевич	0
-4.540657	позитиви	0
-4.359158	маршрутках	0
-4.540657	Шкільні	0
-4.359158	омбудсмани	0
-4.540657	житомирських	0
-4.540657	ліцеях:	0
-4.540657	обов'язки	0
-4.540657	«Мста-С»,	0
-4.540657	БПЛА:	0
-4.540657	116-ї	0
-4.0653625	ворожі	-0.08091911
-3.9550755	цілі	-0.0099369325
-4.540657	Купʼянському	0
-4.359158	локацій	0
-4.540657	Азії	0
-4.540657	обов'язкові	0
-4.359158	тих,	-0.18044904
-4.540657	любить	0
-4.540657	подорожувати	0
-4.540657	Кінець	0
-4.540657	епохи	0
-4.540657	додатків:	0
-4.540657	концепцію	0
-4.540657	AI-взаємодії	0
-3.4752998	врятували	-0.038577624
-4.540657	цуценят,	0
-4.540657	блукали	0
-4.540657	рейках	0
-4.359158	залізничній	0
-4.540657	станції	0
-4.359158	Анастасія	0
-4.540657	Воскобойнікова	0
-4.540657	косметологічні	0
-4.540657	інʼєкції	0
-4.359158	повінь	-0.025282111
-4.359158	з’явилися	0
-4.540657	підводні	0
-4.540657	турбази	0
-4.540657	Харфанг	0
-4.540657	випустив	0
-4.540657	кліп	0
-4.540657	трек	0
-4.540657	"Золото"	0
-4.540657	DJ	0
-4.540657	Valiko	0
-4.540657	"Бумбоксу"	0
-4.540657	Київтеплоенерго	0
-4.540657	вкладе	0
-4.540657	6,8	0
-3.5848224	гривень	-0.089261755
-4.540657	негашене	0
-4.540657	вапно	0
-4.540657	Поезія	0
-4.540657	вічних	0
-4.540657	сенсів:	0
-4.540657	закладах	-0.052127473
-3.8671997	освіти	-0.038577624
-4.540657	Моршинської	0
-4.213555	пройшли	0
-3.9550755	заходи	-0.052237842
-4.540657	легендарної	0
-4.540657	поетеси	0
-4.540657	обгорілих	0
-4.540657	стін	0
-4.540657	музею:	0
-4.540657	старовинний	0
-4.540657	Малевинського	0
-4.540657	Болград	0
-4.0653625	заводу	-0.08091911
-4.359158	балістичних	-0.18044904
-3.7941475	ракет	-0.038577624
-3.545166	показали	-0.04437948
-4.359158	Мадонна	0
-3.731632	повертається	-0.08091911
-4.540657	знімається	0
-4.540657	серіалі	0
-4.540657	Studio	0
-4.540657	Венеції	0
-4.540657	тривалих	0
-4.540657	стосунків	0
-4.540657	щасливого	0
-4.540657	шлюбу:	0
-4.359158	Павло	0
-4.540657	Зібров	0
-4.540657	Мариною	0
-4.359158	знають,	-0.18044904
-4.359158	Барселона	0
-4.540657	запропонує	0
-4.540657	Левандовському	0
-4.540657	контракт,	0
-4.540657	нюанс	0
-4.540657	Карпати	0
-4.540657	замело	0
-4.540657	весняно	0
-4.540657	підморозило	0
-4.540657	Нескінченне	0
-4.540657	очікування:	0
-4.540657	Ілон	0
-4.540657	Маск	0
-4.0653625	вкотре	0
-4.359158	переніс	0
-4.540657	презентацію	0
-4.359158	Tesla	0
-4.359158	Roadster	0
-4.540657	Тайсон	0
-4.540657	Мейвезер:	0
-4.540657	сенсаційні	0
-4.540657	майбутнього	0
-4.540657	поєдинку	0
-4.540657	легенд	0
-4.540657	боксу	0
-4.540657	Італійська	0
-4.213555	журналістка	0
-4.540657	вразила	0
-4.359158	своїм	0
-4.540657	зовнішнім	0
-4.359158	виглядом	0
-4.213555	Він	0
-4.540657	узяв	0
-4.540657	післяматчеві	0
-4.540657	пенальті.	0
-4.540657	Ноттінгем	0
-4.359158	Підпалював	0
-4.0653625	автомобілі	0
-4.213555	Сил	0
-4.540657	оборони:	0
-4.540657	затримала	0
-3.731632	українського	-0.038577624
-4.213555	залишилося	0
-4.540657	активних	0
-4.540657	конкурентів	0
-4.540657	ТК.	0
-4.540657	Далі	0
-4.540657	можливий	0
-3.9550755	тільки	0
-4.540657	прогрес	0
-4.540657	Цікаві	0
-4.540657	Роналдінью:	0
-4.540657	біографія,	0
-4.540657	досягнення,	0
-4.359158	скандали	0
-4.540657	Шаран	0
-4.359158	призначення	0
-4.540657	наставником	0
-3.6284673	Олександрії	-0.030583069
-4.540657	Аня	0
-4.540657	Тейлор-Джой	0
-4.540657	пальто,	0
-3.6769936	яке	-0.034118067
-4.540657	ідеально	0
-4.540657	підходить	0
-4.540657	прохолодних	0
-4.540657	березневих	0
-4.540657	ночей	0
-3.8671997	Українська	0
-4.359158	призерка	0
-4.540657	Олімпіади-2016	0
-4.359158	залишилась	-0.18044904
-4.0653625	нагород	0
-4.359158	медалі	0
-4.540657	перебувають	0
-3.4441743	Криму	-0.04016624
-4.540657	Артем	0
-4.540657	Пивоваров	0
-4.213555	зупинив	0
-4.540657	"халявний	0
-4.540657	флешмоб"	0
-4.540657	Threads	0
-4.540657	Майстер-клас	0
-4.540657	промахів.	0
-4.540657	Мідтьюлланн	0
-4.540657	нулем	0
-4.0653625	серії	-0.08091911
-4.540657	дарує	0
-4.540657	Ноттінгему	0
-4.359158	путівку	-0.18044904
-4.359158	Яремчук	0
-4.359158	компанія	0
-4.540657	змогли	-0.025282111
-4.359158	вийти	-0.18044904
-4.359158	Ліон	0
-4.540657	Сельта	0
-4.540657	0:2.	0
-4.540657	Фіорентина	0
-4.540657	дотискає	0
-4.540657	Ракув:	0
-4.540657	фіалки	0
-4.540657	Мудрика?	0
-4.540657	Українець	0
-4.359158	готовність	-0.18044904
-4.540657	повернення	0
-4.540657	Кірстен	0
-4.540657	Данст	0
-4.540657	приєдналася	0
-4.540657	"Майнкрафт	0
-4.540657	2"	0
-4.213555	зірка	0
-4.540657	профтехи	0
-4.540657	пропустив	0
-4.540657	старті	0
-4.540657	матчу-відповіді	0
-4.540657	орендувати	0
-4.359158	вінгера	0
-4.540657	Манчестер	0
-4.540657	Юнайтед	0
-4.540657	"гірники"	0
-4.540657	першими	0
-4.540657	пропустили	0
-4.359158	Історичний	0
-4.540657	тріумф	0
-4.540657	Фрайбурга:	0
-4.540657	бразильці	0
-4.540657	Брейсгау	0
-4.359158	беруть	0
-4.540657	Генка	0
-4.540657	Псують	0
-4.359158	хороший	0
-4.540657	образ:	0
-4.540657	найпоширеніші	0
-4.540657	помилки	0
-4.540657	стилі,	0
-4.359158	додають	0
-4.540657	віку	0
-4.540657	Циганков	0
-4.540657	чуттєво	0
-4.540657	вродливу	0
-4.213555	дружину	0
-4.540657	Днем	-0.052127473
-4.540657	замилував	0
-4.540657	сімейним	0
-4.540657	фото:	0
-4.540657	"Наша	0
-4.540657	надзвичайна"	0
-4.540657	потрапило,	0
-4.540657	стартом	0
-4.540657	легкої	0
-4.540657	атлетики-2026	0
-4.540657	Польщі.	0
-4.540657	пробує	0
-4.540657	домовитися	0
-4.540657	легендарним	0
-4.540657	спортсменом	0
-4.359158	Кейт	-0.18044904
-4.540657	Міддлтон	0
-4.540657	принц	0
-4.359158	Вільям	0
-4.540657	зустріли	0
-3.8671997	президента	0
-3.9550755	першу	0
-4.540657	леді	0
-4.359158	Нігерії	0
-4.540657	Наймиліші	0
-4.540657	дня:	0
-4.213555	назвала	0
-4.540657	дитини.	0
-4.359158	вилетіли	0
-4.213555	Європи,	0
-4.540657	граючи	0
-4.540657	меншості	0
-4.0653625	українець	0
-4.540657	змарнував	0
-4.540657	супершанс	0
-4.359158	Голлівуд	0
-4.540657	Чехії:	0
-4.0653625	з’явився	-0.08091911
-4.540657	кадр	0
-4.359158	зйомок	0
-4.213555	Леонардо	-0.26883242
-4.359158	Ді	-0.18044904
-4.540657	Капріо	0
-4.359158	Чак	0
-4.540657	Норріс	0
-3.6284673	потрапив	-0.25563768
-3.4441743	лікарні	-0.050623264
-4.540657	Гаваях,	0
-3.7941475	ЗМІ	-0.018078001
-4.359158	«Ти	0
-4.540657	світло».	0
-4.540657	Джорджина	0
-4.359158	звернулась	-0.18044904
-3.731632	З	0
-4.540657	посипаємо	0
-4.540657	грядку	0
-4.540657	цибуля	0
-4.540657	виростає	0
-4.540657	кулак,	0
-4.540657	перо	0
-4.540657	товсте	0
-4.359158	"Вже	0
-4.540657	найкращій	0
-4.540657	формі".	0
-4.0653625	розкритикував	0
-4.540657	Циганського	0
-4.540657	короля	0
-3.545166	Городники	-0.2628812
-4.359158	видів	0
-4.540657	інсектицидів	0
-3.9550755	різних	0
-4.359158	шкідників	0
-4.359158	Великий	0
-4.540657	Луніна:	0
-4.213555	раптово	0
-4.0653625	стати	0
-4.0653625	першим	0
-4.540657	номером	0
-4.540657	Реала	0
-4.359158	Вболівальники	-0.18044904
-3.9550755	звернулися	-0.28142646
-4.540657	банера	0
-4.540657	чітке	0
-4.540657	послання	0
-4.540657	матчем	0
-4.540657	небезпечна	0
-4.540657	команда.	0
-4.540657	Бартулович	0
-4.0653625	перемогу	0
-4.540657	ротацію	0
-4.0653625	Одесі	-0.040418882
-3.198471	затримали	-0.054806642
-4.0653625	посадовця	0
-4.213555	зловживання	0
-4.540657	Butterfly	0
-4.540657	cut	0
-4.540657	стрижка-метелик,	0
-4.540657	пасує	0
-4.540657	будь-якому	0
-4.540657	довжині	0
-3.9550755	втік	-0.11393884
-4.540657	бункер	0
-4.540657	страх	0
-4.540657	ліквідації:	0
-4.540657	диктатор	0
-4.540657	десять	0
-4.540657	з’являється	0
-4.213555	Кремлі	-0.071108274
-3.9550755	Один	-0.06348409
-4.540657	тайм	0
-4.540657	Яремчука.	0
-3.7941475	залишив	-0.04437948
-4.540657	Лігу	0
-4.540657	програвши	0
-4.540657	Сельті	0
-4.359158	Франківську	0
-4.540657	забрали	0
-3.5848224	близько	-0.027712079
-4.540657	занедбаних	0
-3.9550755	авто:	0
-4.213555	власники	0
-4.540657	часто	0
-3.545166	військові	-0.017728211
-4.540657	Ветеринари	0
-4.540657	кішка	0
-4.359158	попереджає	0
-4.359158	господарів	0
-4.359158	небезпеку	0
-4.540657	Фрайбург	0
-4.213555	здійснив	0
-4.540657	камбек	0
-4.540657	«Попереду	0
-4.359158	важкі	0
-4.540657	матчі»:	0
-4.359158	біло-синіх	0
-4.540657	Олександрією	0
-4.359158	Так	0
-4.540657	звідки	0
-4.540657	вуса:	0
-4.540657	засвітилися	0
-3.731632	перші	0
-4.540657	Дженніфер	0
-4.540657	Лоуренс	0
-4.540657	загадкового	0
-4.359158	Мартіна	0
-4.540657	Скорсезе	0
-3.8671997	Жителі	0
-3.9550755	повернули	0
-4.213555	сміття	-0.11162927
-4.540657	ліквідованих	0
-4.540657	звалищ	0
-4.540657	Вознесенщині	0
-4.540657	бійки	0
-4.540657	шлюбі:	0
-4.540657	"Вона	0
-4.540657	емоційна	0
-4.540657	людина"	0
-4.540657	принесли	0
-4.540657	красномовний	0
-4.540657	банер	0
-4.540657	Куртуа	0
-4.213555	травму	0
-4.540657	Луніна	0
-4.540657	майбутної	0
-4.540657	виклала	0
-4.540657	милий	0
-4.540657	фотосет	0
-4.540657	«Полтава»	0
-4.359158	програла	0
-4.540657	«Металісту	0
-4.540657	1925»:	0
-4.540657	сьома	0
-4.540657	поразка	0
-4.540657	Майбутня	0
-4.540657	зірка:	0
-4.540657	маленький	0
-4.540657	син	0
-4.540657	Джамали	0
-4.540657	мамою	0
-4.540657	виконали	0
-4.359158	пісню	0
-4.359158	"1944"	0
-4.540657	звучання	0
-4.540657	пробирає	0
-4.540657	кісток	0
-4.540657	Гравці	0
-4.0653625	прибули	-0.08091911
-4.540657	стадіон	0
-4.540657	Кракові,	0
-4.540657	зіграють	0
-4.540657	П’яний	0
-4.540657	«штурм»	0
-4.359158	магазину	0
-4.540657	Ужгороді:	0
-3.731632	водій	-0.027712079
-4.213555	прав	0
-4.540657	протаранив	0
-3.6284673	будівлю	-0.09925233
-4.540657	Загорській	0
-4.540657	Бережанському	0
-4.213555	краєзнавчому	-0.26883242
-4.213555	музеї	0
-4.540657	персональну	0
-4.540657	«Барви	0
-4.540657	юності»	0
-4.540657	художниці	0
-4.540657	Вероніки	0
-4.540657	Кріль	0
-4.359158	Луцьку	-0.034118067
-4.359158	перехресті	0
-4.213555	зіткнулися	-0.11162927
-4.540657	покарали	0
-4.0653625	обох	0
-3.731632	водіїв	0
-3.4752998	дві	-0.041275516
-4.540657	підчерги:	0
-3.6284673	графік	-0.22083442
-4.540657	Верхолази	0
-3.6284673	ДСНС	-0.058423854
-4.540657	тренуються	0
-4.540657	висоті:	0
-4.540657	відпрацьовують	0
-4.359158	безпеку	0
-4.359158	мотоцикл	0
-4.359158	врізався	-0.18044904
-4.540657	перешкоду:	0
-3.415131	ДТП	-0.14988182
-3.3381045	двоє	-0.13809805
-4.213555	підлітків	0
-4.359158	Ковелі	0
-4.540657	Обенижі	0
-4.213555	горіла	-0.26883242
-4.540657	суха	-0.025282111
-4.540657	трава	0
-4.540657	мішків	0
-4.359158	сміття:	0
-4.540657	шацькі	0
-4.359158	ліцеїсти	0
-4.540657	очистили	0
-4.540657	береги	0
-4.540657	озер	0
-3.5848224	(Фото)	-0.10611557
-4.359158	вимкнуть	-0.11162927
-3.4752998	світло	-0.03225395
-4.540657	Вишнів	0
-3.8671997	пожежа	-0.030583069
-4.213555	знищила	0
-4.540657	споруду	0
-3.9550755	Завтра	-0.23129474
-4.540657	застосують	0
-3.731632	відключення	-0.3066729
-4.359158	Головні	0
-4.540657	новини	0
-4.540657	дайджест	0
-4.359158	Прикордонник	0
-4.359158	чемпіоном	-0.09597227
-4.540657	Учні	0
-4.540657	Маневицького	0
-3.731632	ліцею	-0.034118067
-3.6284673	відділення	-0.027712079
-3.4441743	поліції	-0.11469062
-3.7941475	масштабний	0
-4.0653625	форум	0
-4.540657	освітян	0
-4.213555	Нововолинську	0
-4.540657	виконком	0
-4.359158	ухвалив	0
-4.540657	засіданні	0
-4.213555	відбулося	0
-4.540657	спортивне	0
-4.359158	свято	0
-4.540657	Всесвітнього	-0.052127473
-4.540657	синдромом	0
-4.540657	Дауна	0
-3.6769936	відбудеться	-0.005492408
-4.540657	традиційний	0
-4.540657	передвеликодній	0
-4.540657	ярмарок	0
-4.540657	Сім’я	0
-4.540657	Сасів	0
-4.359158	поєднує	0
-4.540657	виховання	0
-4.540657	захисникам	0
-4.540657	постраждалим	0
-4.540657	Жителька	0
-3.731632	села	-0.12963605
-4.540657	Гірники	0
-4.540657	Лещук	0
-4.540657	відсвяткувала	0
-4.540657	97-річчя	0
-4.540657	Маневичах	0
-4.213555	змагалися	-0.11162927
-4.213555	юні	0
-4.359158	техніки:	0
-3.7941475	визначили	-0.09381565
-4.359158	переможців	0
-4.359158	конкурсу	0
-4.0653625	Весняна	-0.08091911
-4.540657	толока	0
-4.540657	Воронках:	0
-3.9550755	жителі	-0.0099369325
-4.540657	впорядкували	0
-4.540657	Луківська	0
-4.359158	передала	-0.01245711
-4.540657	шкільний	0
-4.359158	автобус	-0.01669016
-4.540657	Люблинецькій	0
-3.9550755	продають	0
-4.0653625	бізнес	0
-4.0653625	будівництва	0
-3.6769936	доріг	-0.053243537
-4.540657	Горохівська	0
-4.359158	лікарня	0
-3.731632	кошти	-0.09002109
-3.4752998	ремонт	-0.09164913
-4.540657	ортопедо-травматологічного	0
-3.6769936	триває	-0.034118067
-4.0653625	весняне	-0.18451644
-4.213555	прибирання	0
-4.0653625	вулиць	-0.08091911
-4.540657	ліцеях	0
-4.540657	Городищенської	0
-4.359158	підняли	0
-4.540657	Прапори	0
-4.359158	Надії	0
-4.540657	Луцьком	0
-3.252922	авто	-0.04858382
-4.540657	вилетіло	0
-4.540657	кювет:	0
-4.540657	утворився	0
-3.9550755	великий	-0.06348409
-4.540657	затор	0
-3.9550755	оштрафували	0
-4.540657	продавчиню	0
-4.540657	пекарні	0
-4.540657	зупинці	0
-4.540657	Волинській	0
-3.5088294	обговорили	-0.020147586
-4.359158	пробації	0
-4.540657	Луцький	0
-4.540657	студент	0
-4.540657	«мисливцем»	0
-4.213555	дрони:	0
-3.731632	історія	-0.038577624
-4.540657	100-ї	0
-4.540657	Виносили	0
-3.8671997	десятки	-0.36060768
-4.359158	доларів:	0
-3.3381045	викрили	-0.04084545
-4.359158	«гастролерів»,	-0.18044904
-4.540657	обкрадали	0
-4.540657	Волинські	0
-3.7941475	поліцейські	0
-4.540657	банду	0
-4.540657	елітні	0
-4.213555	школа	0
-4.540657	«Years»	0
-4.359158	запрошує	0
-4.359158	відкритих	-0.01669016
-4.540657	дверей:	0
-4.0653625	батьків	0
-4.540657	кличуть	0
-4.540657	знайомства	0
-4.540657	гастролерів,	0
-4.540657	крали	0
-3.5088294	гроші	-0.07252111
-3.9550755	вилучили	0
-4.540657	крадіїв-гастролерів,	0
-4.0653625	викрали	0
-4.540657	Луцькому	0
-3.3381045	районі	-0.037540313
-4.540657	ігри	0
-4.359158	вогнем	0
-4.540657	тла	0
-4.359158	згоріла	0
-4.359158	будівля	0
-4.0653625	Наслідки	-0.08091911
-3.415131	пожежі	-0.14063497
-4.540657	екосистемах:	0
-4.540657	комісії	0
-4.540657	ТЕБ	0
-4.540657	НС	0
-4.540657	Муніципальна	0
-4.540657	варта	0
-4.213555	Володимира	0
-4.540657	виявляє	0
-4.540657	стихійні	0
-4.540657	сміттєзвалища	0
-4.540657	порушників	0
-4.540657	благоустрою	0
-4.213555	70	0
-4.540657	робіт:	0
-4.540657	Ківерцівській	0
-3.7941475	відзначили	0
-4.213555	юних	0
-4.359158	митців	0
-4.0653625	території	0
-4.540657	волинської	0
-4.540657	вирубали	0
-4.540657	сосен	0
-3.731632	6	-0.005492408
-4.540657	Любешівщину	0
-4.359158	очільник	0
-4.540657	Рожищенській	0
-4.213555	затвердили	0
-4.359158	дитсадків	0
-4.540657	відтворили	0
-4.359158	давній	0
-4.540657	звичай	0
-4.540657	випікати	0
-4.540657	їстівні	0
-4.540657	хрести	0
-4.540657	Афіша	0
-4.540657	ковельського	0
-4.540657	кінотеатру	0
-4.213555	березня.	0
-4.540657	АНОНС	0
-4.540657	Радянські	0
-4.540657	операційні	0
-4.540657	Луцька	0
-4.359158	нарешті	0
-4.540657	сучасними	0
-4.540657	церемоніал	0
-4.540657	мовчання:	0
-3.8671997	вона	0
-4.359158	проходитиме	0
-4.540657	Луцькій	0
-4.540657	зловили	0
-3.5848224	8	-0.05222938
-4.0653625	паліїв	0
-4.540657	сухого	0
-4.540657	зілля	0
-4.540657	листя	0
-4.540657	Вбивство	0
-4.213555	Волині:	0
-3.4752998	поліція	0
-4.540657	арештувала	0
-3.120597	чоловіка	-0.14520459
-4.540657	злочину	0
-4.359158	Раптово	0
-4.213555	пішов	-0.11162927
-4.540657	підполковник	0
-4.540657	Валентин	0
-4.540657	Фількевич	0
-4.540657	п'яного	0
-3.7941475	водія	-0.038577624
-4.0653625	Volkswagen	0
-4.540657	Т.в.о.	0
